{"learner":{"attributes":{"scikit_learn":"{\"_estimator_type\": \"classifier\"}"},"feature_names":["automated_readability_index","coleman_liau_index","flesch_kincaid_grade_level","flesch_reading_ease","gulpease_index","gunning_fog_index","lix","smog_index","wiener_sachtextformel","n_chars","n_long_words","n_monosyllable_words","n_polysyllable_words","n_sents","n_syllables","n_unique_words","n_words","sent_neg","sent_neu","sent_pos","sent_compound","economic_stress_total","isolation_total","substance_use_total","guns_total","domestic_stress_total","suicidality_total","punctuation","liwc_1st_pers","liwc_2nd_pers","liwc_3rd_pers","liwc_achievement","liwc_adverbs","liwc_affective_processes","liwc_anger","liwc_anxiety","liwc_articles_article","liwc_assent","liwc_auxiliary_verbs","liwc_biological","liwc_body","liwc_causation","liwc_certainty","liwc_cognitive","liwc_common_verbs","liwc_conjunctions","liwc_death","liwc_discrepancy","liwc_exclusive","liwc_family","liwc_feel","liwc_fillers","liwc_friends","liwc_future_tense","liwc_health","liwc_hear","liwc_home","liwc_humans","liwc_impersonal_pronouns","liwc_inclusive","liwc_ingestion","liwc_inhibition","liwc_insight","liwc_leisure","liwc_money","liwc_motion","liwc_negations","liwc_negative_emotion","liwc_nonfluencies","liwc_numbers","liwc_past_tense","liwc_perceptual_processes","liwc_personal_pronouns","liwc_positive_emotion","liwc_prepositions","liwc_present_tense","liwc_quantifiers","liwc_relativity","liwc_religion","liwc_sadness","liwc_see","liwc_sexual","liwc_social_processes","liwc_space","liwc_swear_words","liwc_tentative","liwc_time","liwc_total_functional","liwc_total_pronouns","liwc_work","tfidf_abl","tfidf_abus","tfidf_actual","tfidf_addict","tfidf_adhd","tfidf_advic","tfidf_ago","tfidf_alcohol","tfidf_almost","tfidf_alon","tfidf_alreadi","tfidf_also","tfidf_alway","tfidf_amp","tfidf_amp x200b","tfidf_ani","tfidf_anoth","tfidf_anxieti","tfidf_anxious","tfidf_anymor","tfidf_anyon","tfidf_anyon els","tfidf_anyth","tfidf_around","tfidf_ask","tfidf_attack","tfidf_away","tfidf_back","tfidf_bad","tfidf_becaus","tfidf_becom","tfidf_befor","tfidf_believ","tfidf_best","tfidf_better","tfidf_bit","tfidf_bodi","tfidf_bpd","tfidf_brain","tfidf_call","tfidf_came","tfidf_care","tfidf_caus","tfidf_chang","tfidf_come","tfidf_complet","tfidf_constant","tfidf_control","tfidf_could","tfidf_coupl","tfidf_cri","tfidf_day","tfidf_deal","tfidf_depress","tfidf_diagnos","tfidf_die","tfidf_differ","tfidf_disord","tfidf_doctor","tfidf_doe","tfidf_done","tfidf_dont","tfidf_drink","tfidf_drug","tfidf_eat","tfidf_els","tfidf_emot","tfidf_end","tfidf_enough","tfidf_etc","tfidf_even","tfidf_ever","tfidf_everi","tfidf_everyon","tfidf_everyth","tfidf_experi","tfidf_famili","tfidf_fear","tfidf_feel","tfidf_feel like","tfidf_felt","tfidf_final","tfidf_find","tfidf_first","tfidf_food","tfidf_found","tfidf_friend","tfidf_fuck","tfidf_get","tfidf_give","tfidf_go","tfidf_good","tfidf_got","tfidf_great","tfidf_guess","tfidf_guy","tfidf_happen","tfidf_happi","tfidf_hard","tfidf_hate","tfidf_head","tfidf_health","tfidf_hear","tfidf_heart","tfidf_help","tfidf_high","tfidf_home","tfidf_hope","tfidf_hour","tfidf_hous","tfidf_hurt","tfidf_idea","tfidf_im","tfidf_issu","tfidf_job","tfidf_keep","tfidf_kill","tfidf_kind","tfidf_know","tfidf_last","tfidf_late","tfidf_leav","tfidf_left","tfidf_let","tfidf_life","tfidf_like","tfidf_littl","tfidf_live","tfidf_long","tfidf_look","tfidf_lose","tfidf_lost","tfidf_lot","tfidf_love","tfidf_made","tfidf_make","tfidf_mani","tfidf_mayb","tfidf_mean","tfidf_med","tfidf_medic","tfidf_mental","tfidf_might","tfidf_mind","tfidf_mom","tfidf_month","tfidf_move","tfidf_much","tfidf_need","tfidf_never","tfidf_new","tfidf_next","tfidf_night","tfidf_normal","tfidf_noth","tfidf_notic","tfidf_old","tfidf_onc","tfidf_one","tfidf_onli","tfidf_pain","tfidf_panic","tfidf_parent","tfidf_part","tfidf_past","tfidf_peopl","tfidf_person","tfidf_place","tfidf_pleas","tfidf_point","tfidf_possibl","tfidf_post","tfidf_pretti","tfidf_probabl","tfidf_problem","tfidf_ptsd","tfidf_put","tfidf_question","tfidf_quit","tfidf_read","tfidf_real","tfidf_realli","tfidf_reason","tfidf_recent","tfidf_relationship","tfidf_rememb","tfidf_right","tfidf_said","tfidf_say","tfidf_scare","tfidf_school","tfidf_see","tfidf_seem","tfidf_self","tfidf_sever","tfidf_shit","tfidf_sinc","tfidf_situat","tfidf_sleep","tfidf_social","tfidf_someon","tfidf_someth","tfidf_sometim","tfidf_sorri","tfidf_start","tfidf_stay","tfidf_still","tfidf_stop","tfidf_stress","tfidf_struggl","tfidf_stuff","tfidf_suicid","tfidf_support","tfidf_sure","tfidf_symptom","tfidf_take","tfidf_talk","tfidf_tell","tfidf_thank","tfidf_therapi","tfidf_therapist","tfidf_thing","tfidf_think","tfidf_though","tfidf_thought","tfidf_time","tfidf_tire","tfidf_today","tfidf_told","tfidf_took","tfidf_tri","tfidf_turn","tfidf_two","tfidf_understand","tfidf_us","tfidf_use","tfidf_usual","tfidf_veri","tfidf_want","tfidf_way","tfidf_week","tfidf_weight","tfidf_well","tfidf_went","tfidf_whi","tfidf_whole","tfidf_wish","tfidf_without","tfidf_wonder","tfidf_work","tfidf_worri","tfidf_wors","tfidf_would","tfidf_wrong","tfidf_x200b","tfidf_year"],"feature_types":["float","float","float","float","float","float","float","float","float","int","int","int","int","int","int","int","int","float","float","float","float","int","int","int","int","int","int","float","int","int","int","int","int","int","int","int","int","int","int","int","int","int","int","int","int","int","int","int","int","int","int","int","int","int","int","int","int","int","int","int","int","int","int","int","int","int","int","int","int","int","int","int","int","int","int","int","int","int","int","int","int","int","int","int","int","int","int","int","int","int","float","float","float","float","float","float","float","float","float","float","float","float","float","float","float","float","float","float","float","float","float","float","float","float","float","float","float","float","float","float","float","float","float","float","float","float","float","float","float","float","float","float","float","float","float","float","float","float","float","float","float","float","float","float","float","float","float","float","float","float","float","float","float","float","float","float","float","float","float","float","float","float","float","float","float","float","float","float","float","float","float","float","float","float","float","float","float","float","float","float","float","float","float","float","float","float","float","float","float","float","float","float","float","float","float","float","float","float","float","float","float","float","float","float","float","float","float","float","float","float","float","float","float","float","float","float","float","float","float","float","float","float","float","float","float","float","float","float","float","float","float","float","float","float","float","float","float","float","float","float","float","float","float","float","float","float","float","float","float","float","float","float","float","float","float","float","float","float","float","float","float","float","float","float","float","float","float","float","float","float","float","float","float","float","float","float","float","float","float","float","float","float","float","float","float","float","float","float","float","float","float","float","float","float","float","float","float","float","float","float","float","float","float","float","float","float","float","float","float","float","float","float","float","float","float","float","float","float","float","float","float","float","float","float","float","float","float","float","float","float","float","float","float","float","float","float","float","float","float","float","float","float","float","float","float","float"],"gradient_booster":{"model":{"gbtree_model_param":{"num_parallel_tree":"1","num_trees":"400"},"iteration_indptr":[0,4,8,12,16,20,24,28,32,36,40,44,48,52,56,60,64,68,72,76,80,84,88,92,96,100,104,108,112,116,120,124,128,132,136,140,144,148,152,156,160,164,168,172,176,180,184,188,192,196,200,204,208,212,216,220,224,228,232,236,240,244,248,252,256,260,264,268,272,276,280,284,288,292,296,300,304,308,312,316,320,324,328,332,336,340,344,348,352,356,360,364,368,372,376,380,384,388,392,396,400],"tree_info":[0,1,2,3,0,1,2,3,0,1,2,3,0,1,2,3,0,1,2,3,0,1,2,3,0,1,2,3,0,1,2,3,0,1,2,3,0,1,2,3,0,1,2,3,0,1,2,3,0,1,2,3,0,1,2,3,0,1,2,3,0,1,2,3,0,1,2,3,0,1,2,3,0,1,2,3,0,1,2,3,0,1,2,3,0,1,2,3,0,1,2,3,0,1,2,3,0,1,2,3,0,1,2,3,0,1,2,3,0,1,2,3,0,1,2,3,0,1,2,3,0,1,2,3,0,1,2,3,0,1,2,3,0,1,2,3,0,1,2,3,0,1,2,3,0,1,2,3,0,1,2,3,0,1,2,3,0,1,2,3,0,1,2,3,0,1,2,3,0,1,2,3,0,1,2,3,0,1,2,3,0,1,2,3,0,1,2,3,0,1,2,3,0,1,2,3,0,1,2,3,0,1,2,3,0,1,2,3,0,1,2,3,0,1,2,3,0,1,2,3,0,1,2,3,0,1,2,3,0,1,2,3,0,1,2,3,0,1,2,3,0,1,2,3,0,1,2,3,0,1,2,3,0,1,2,3,0,1,2,3,0,1,2,3,0,1,2,3,0,1,2,3,0,1,2,3,0,1,2,3,0,1,2,3,0,1,2,3,0,1,2,3,0,1,2,3,0,1,2,3,0,1,2,3,0,1,2,3,0,1,2,3,0,1,2,3,0,1,2,3,0,1,2,3,0,1,2,3,0,1,2,3,0,1,2,3,0,1,2,3,0,1,2,3,0,1,2,3,0,1,2,3,0,1,2,3,0,1,2,3,0,1,2,3,0,1,2,3,0,1,2,3,0,1,2,3,0,1,2,3,0,1,2,3,0,1,2,3,0,1,2,3,0,1,2,3,0,1,2,3],"trees":[{"base_weights":[-3.123186E-1,-4.2671505E-1,7.15479E-1,-2.7077284E-1,-5.311874E-1,6.2429823E-2,1E0,-1.1718525E-1,-4.5581278E-1,-5.551059E-1,-1.9652848E-1,4.0677965E-1,-1.907357E-1,1E0,4.7088104E-1,-1.9047345E-1,6.060262E-1,-4.842591E-1,1.7258883E-1,-4.79281E-1,-5.941939E-1,-4.5812416E-1,1.1396368E-1,2.7171493E-1,1E0,-2.54022E-1,5.21327E-1,1E0,1.0909091E-1,2.0612814E-1,1E0,-3.1313172E-1,1.4562689E-1,3.4116444E-1,9.3367344E-1,-4.1336885E-1,-6.3477004E-1,-2.30563E-1,6.396256E-1,-5.227281E-1,-2.4037522E-1,-6.11359E-1,-5.1359946E-1,-4.853304E-1,2.4657534E-1,5.4545456E-1,-2.6494724E-1,5.267666E-1,-1.0132502E-1,1E0,2.0895523E-1,-9.2499025E-2,-4.4557667E-1,7.343283E-1,-2.736842E-1,1E0,5.6842107E-1,-3.8961038E-1,1E0,1.9065777E-3,7.443038E-1,1.7449665E-1,1E0,-1.01146296E-1,2.7835053E-1,2.8467404E-2,3E-1,1.3125001E-1,-5.960265E-2,3E-1,-1.0909091E-2,-1.369493E-1,-3.319149E-2,-1.9091474E-1,1.20000005E-1,-1.221996E-3,-1.9391635E-1,2.632411E-1,-7.132868E-2,-1.3666226E-1,-1.8600787E-1,-9.9732295E-2,4.0157482E-2,-1.8362159E-1,7.2000004E-2,-1.5861078E-1,8.256881E-2,-1.5658721E-1,-6.8094224E-2,3E-1,-8.5714296E-2,2.1809371E-1,-9.4736844E-2,-2.1532493E-2,-1.6603221E-1,1.3163808E-1,3E-1,-5.4004956E-2,3E-1,3E-1,-6.3829795E-2,3E-1,-5.0420174E-3,-6.8980485E-2,7.571235E-2,-1.4441688E-1,1.5789475E-2,2.8057554E-1,-6.461539E-2,2.4000001E-1,-1.5180725E-1,3E-1,1.5E-1,3.529412E-2,3E-1,-1.7647061E-1,1.7647061E-1,3E-1,-1.0588236E-1,1.9175258E-1,-4.2410195E-2,2.7737707E-1,3.6734696E-2,2.1176472E-1,-7.4157305E-2,3E-1,-1.20000005E-1],"categories":[],"categories_nodes":[],"categories_segments":[],"categories_sizes":[],"default_left":[0,0,0,0,0,0,0,0,0,0,0,0,0,0,0,0,0,0,0,0,0,0,0,0,0,0,0,0,0,0,0,0,0,0,0,0,0,0,0,0,0,0,0,0,0,0,0,0,0,0,0,0,0,0,0,0,0,0,0,0,0,0,0,0,0,0,0,0,0,0,0,0,0,0,0,0,0,0,0,0,0,0,0,0,0,0,0,0,0,0,0,0,0,0,0,0,0,0,0,0,0,0,0,0,0,0,0,0,0,0,0,0,0,0,0,0,0,0,0,0,0,0,0,0,0,0,0],"id":0,"left_children":[1,3,5,7,9,11,13,15,17,19,21,23,25,27,29,31,33,35,37,39,41,43,45,47,49,51,53,55,57,59,61,63,65,67,69,71,73,75,77,79,81,83,85,87,89,91,93,95,97,99,101,103,105,107,109,111,113,115,117,119,121,123,125,-1,-1,-1,-1,-1,-1,-1,-1,-1,-1,-1,-1,-1,-1,-1,-1,-1,-1,-1,-1,-1,-1,-1,-1,-1,-1,-1,-1,-1,-1,-1,-1,-1,-1,-1,-1,-1,-1,-1,-1,-1,-1,-1,-1,-1,-1,-1,-1,-1,-1,-1,-1,-1,-1,-1,-1,-1,-1,-1,-1,-1,-1,-1,-1],"loss_changes":[2.845801E3,3.5465576E2,7.813406E2,2.4830396E2,1.0427124E2,9.712795E1,6.930664E1,2.5329019E2,7.0929504E1,3.5784668E1,7.082826E1,4.1278877E1,2.9074675E1,9.913696E0,4.1820057E1,1.788766E2,3.784349E1,4.0195984E1,3.2603397E1,4.2895874E1,1.0789307E1,9.190521E0,6.542054E1,3.743325E1,9.481346E0,1.8229137E1,9.133577E0,7.847412E0,6.672403E0,1.9726902E1,1.1692116E1,9.506415E1,5.1906483E1,1.2815334E1,1.2905945E1,3.364322E1,2.277069E0,8.779655E0,1.6929283E1,2.2637817E1,2.2082195E1,4.159668E0,1.700946E1,4.1952667E0,8.890411E0,2.9464565E1,1.1844476E1,1.3280815E1,1.5258917E1,7.6409607E0,3.8978586E0,1.530241E1,4.840523E0,8.192007E0,3.3671525E0,6E0,1.1659985E1,2.2154317E0,2.8897057E0,1.2062591E1,5.42231E0,4.3479557E0,3.9000015E0,0E0,0E0,0E0,0E0,0E0,0E0,0E0,0E0,0E0,0E0,0E0,0E0,0E0,0E0,0E0,0E0,0E0,0E0,0E0,0E0,0E0,0E0,0E0,0E0,0E0,0E0,0E0,0E0,0E0,0E0,0E0,0E0,0E0,0E0,0E0,0E0,0E0,0E0,0E0,0E0,0E0,0E0,0E0,0E0,0E0,0E0,0E0,0E0,0E0,0E0,0E0,0E0,0E0,0E0,0E0,0E0,0E0,0E0,0E0,0E0,0E0,0E0,0E0,0E0],"parents":[2147483647,0,0,1,1,2,2,3,3,4,4,5,5,6,6,7,7,8,8,9,9,10,10,11,11,12,12,13,13,14,14,15,15,16,16,17,17,18,18,19,19,20,20,21,21,22,22,23,23,24,24,25,25,26,26,27,27,28,28,29,29,30,30,31,31,32,32,33,33,34,34,35,35,36,36,37,37,38,38,39,39,40,40,41,41,42,42,43,43,44,44,45,45,46,46,47,47,48,48,49,49,50,50,51,51,52,52,53,53,54,54,55,55,56,56,57,57,58,58,59,59,60,60,61,61,62,62],"right_children":[2,4,6,8,10,12,14,16,18,20,22,24,26,28,30,32,34,36,38,40,42,44,46,48,50,52,54,56,58,60,62,64,66,68,70,72,74,76,78,80,82,84,86,88,90,92,94,96,98,100,102,104,106,108,110,112,114,116,118,120,122,124,126,-1,-1,-1,-1,-1,-1,-1,-1,-1,-1,-1,-1,-1,-1,-1,-1,-1,-1,-1,-1,-1,-1,-1,-1,-1,-1,-1,-1,-1,-1,-1,-1,-1,-1,-1,-1,-1,-1,-1,-1,-1,-1,-1,-1,-1,-1,-1,-1,-1,-1,-1,-1,-1,-1,-1,-1,-1,-1,-1,-1,-1,-1,-1,-1],"split_conditions":[1.3389607E-1,1E0,5.5691272E-2,1E0,6.369219E-2,1E0,5.3592306E-2,2.6537394E-2,6.509836E-2,1E0,4.0181924E-2,2E0,5.2596968E-2,1.3463444E-1,2.1379168E-1,1E0,7E0,5.4516517E-2,2.6537394E-2,2E0,1.20273836E-1,1.2343076E-1,4.5133173E-2,1E0,4.7275018E-2,2E0,7.4895464E-2,1.3355468E-1,2.6137248E-2,1.3425611E-1,2.0989212E-1,1.1419321E-1,1.5068722E-1,1.886593E-1,1.1658969E-1,8.491514E-2,5.866548E-1,3.1136908E-2,7.19743E-2,2E0,1.3600856E-1,5.9701616E-1,1.3634665E-1,1.8487531E-1,1.23E-1,5.3001113E-2,3.1136908E-2,2.9225567E-2,2.700575E-2,1.4077742E-1,5E0,2.4859776E-1,1.24993056E-1,4E0,1.2E1,4E0,2.0252904E-1,9.0992816E-2,6.6523716E-2,1E0,6.914531E-2,2E0,1.5603569E-1,-1.01146296E-1,2.7835053E-1,2.8467404E-2,3E-1,1.3125001E-1,-5.960265E-2,3E-1,-1.0909091E-2,-1.369493E-1,-3.319149E-2,-1.9091474E-1,1.20000005E-1,-1.221996E-3,-1.9391635E-1,2.632411E-1,-7.132868E-2,-1.3666226E-1,-1.8600787E-1,-9.9732295E-2,4.0157482E-2,-1.8362159E-1,7.2000004E-2,-1.5861078E-1,8.256881E-2,-1.5658721E-1,-6.8094224E-2,3E-1,-8.5714296E-2,2.1809371E-1,-9.4736844E-2,-2.1532493E-2,-1.6603221E-1,1.3163808E-1,3E-1,-5.4004956E-2,3E-1,3E-1,-6.3829795E-2,3E-1,-5.0420174E-3,-6.8980485E-2,7.571235E-2,-1.4441688E-1,1.5789475E-2,2.8057554E-1,-6.461539E-2,2.4000001E-1,-1.5180725E-1,3E-1,1.5E-1,3.529412E-2,3E-1,-1.7647061E-1,1.7647061E-1,3E-1,-1.0588236E-1,1.9175258E-1,-4.2410195E-2,2.7737707E-1,3.6734696E-2,2.1176472E-1,-7.4157305E-2,3E-1,-1.20000005E-1],"split_indices":[289,79,107,54,289,79,143,107,289,54,107,35,108,301,107,35,82,231,107,35,255,108,143,54,239,22,99,231,119,255,289,108,108,115,310,107,176,231,203,22,255,204,108,306,17,231,231,287,108,231,86,289,155,54,27,22,289,339,178,54,217,54,292,0,0,0,0,0,0,0,0,0,0,0,0,0,0,0,0,0,0,0,0,0,0,0,0,0,0,0,0,0,0,0,0,0,0,0,0,0,0,0,0,0,0,0,0,0,0,0,0,0,0,0,0,0,0,0,0,0,0,0,0,0,0,0,0],"split_type":[0,0,0,0,0,0,0,0,0,0,0,0,0,0,0,0,0,0,0,0,0,0,0,0,0,0,0,0,0,0,0,0,0,0,0,0,0,0,0,0,0,0,0,0,0,0,0,0,0,0,0,0,0,0,0,0,0,0,0,0,0,0,0,0,0,0,0,0,0,0,0,0,0,0,0,0,0,0,0,0,0,0,0,0,0,0,0,0,0,0,0,0,0,0,0,0,0,0,0,0,0,0,0,0,0,0,0,0,0,0,0,0,0,0,0,0,0,0,0,0,0,0,0,0,0,0,0],"sum_hessian":[2.420025E4,2.1777E4,2.42325E3,8.737875E3,1.3039125E4,1.11225E3,1.311E3,4.775625E3,3.96225E3,1.216875E4,8.70375E2,4.71E2,6.4125E2,1.060875E3,2.50125E2,4.336875E3,4.3875E2,3.790875E3,1.71375E2,4.14375E3,8.025E3,4.72125E2,3.9825E2,3.91875E2,7.9125E1,5.895E2,5.175E1,1.048125E3,1.275E1,1.785E2,7.1625E1,3.177375E3,1.1595E3,2.4375E2,1.95E2,2.579625E3,1.21125E3,9.225E1,7.9125E1,3.505125E3,6.38625E2,6.6105E3,1.4145E3,4.54875E2,1.725E1,1.86E2,2.1225E2,2.325E2,1.59375E2,6.3375E1,1.575E1,3.20625E2,2.68875E2,4.0875E1,1.0875E1,1.001625E3,4.65E1,8.625E0,4.125E0,1.30125E2,4.8375E1,1.7625E1,5.4E1,3.11775E3,5.9625E1,1.097625E3,6.1875E1,2.07E2,3.675E1,1.8225E2,1.275E1,2.2575E3,3.22125E2,1.20975E3,1.5E0,6.0375E1,3.1875E1,6.225E1,1.6875E1,2.07675E3,1.428375E3,5.12625E2,1.26E2,6.60525E3,5.25E0,1.38825E3,2.625E1,3.975E2,5.7375E1,6E0,1.125E1,1.5375E2,3.225E1,1.27875E2,8.4375E1,2.10375E2,2.2125E1,1.50375E2,9E0,5.85E1,4.875E0,1.875E0,1.3875E1,2.295E2,9.1125E1,2.50875E2,1.8E1,3.375E1,7.125E0,1.5E0,9.375E0,9.74625E2,2.7E1,2.6625E1,1.9875E1,7.5E0,1.125E0,3E0,1.125E0,2.325E1,1.06875E2,3.7125E1,1.125E1,7.5E0,1.0125E1,5.25E1,1.5E0],"tree_param":{"num_deleted":"0","num_feature":"346","num_nodes":"127","size_leaf_vector":"1"}},{"base_weights":[8.3187854E-1,1E0,-9.2894636E-2,1E0,2.0426633E-2,-2.5312722E-1,1E0,1E0,2.1185671E-1,-1.15299985E-1,1E0,-3.764972E-1,3.1647164E-1,1E0,4.028777E-1,4.8411596E-1,1E0,-5.4508872E-2,1E0,-2.3798159E-1,6.3874346E-1,1E0,1.1464968E-1,-4.7491413E-1,-1.5431473E-1,7.095736E-1,-1.9499513E-3,1E0,-2.857143E-1,1.567696E-1,1E0,3.8547292E-1,1E0,1E0,3.5624123E-1,-1.6143408E-1,1E0,1E0,5.052879E-1,-6.3008554E-2,-3.584281E-1,9.417637E-1,1.2290503E-1,1E0,2.5974026E-2,8.4615386E-1,-2.3853211E-1,-5.1198566E-1,-2.0600462E-1,5.4167762E-2,-3.481028E-1,1E0,1.3953489E-1,2.5842696E-1,-2.2516556E-1,1E0,1.4736842E-1,-1.6595745E-1,1.7647061E-1,6.649616E-2,1E0,1E0,-1.3846155E-1,8.302062E-2,3E-1,3E-1,-1.0588236E-1,3E-1,1.2210835E-1,4.713585E-2,3E-1,-8.4622644E-2,1.4067693E-1,3E-1,-1.5E-1,3E-1,4.615385E-2,8.221574E-2,3E-1,-2.8229257E-2,3E-1,-1.1059507E-1,2.3076925E-1,3.687151E-2,3E-1,1.8529412E-1,-5.309735E-2,3E-1,-1.3846155E-1,-1.322034E-1,3E-1,-8.5714296E-2,3E-1,2.8695655E-1,-1.09359615E-1,-1.5878904E-1,-5.314506E-2,-7.204503E-2,3E-1,-3.100559E-2,1.5902852E-1,-1.13447934E-1,1.6204381E-1,3E-1,-5.954199E-2,-9.574468E-3,3E-1,2.0020224E-2,2.0451467E-1,-9.227615E-2,1.1067962E-1,3E-1,3.896104E-2,3E-1,-6.0000002E-2,-3.2967036E-3,2.9032257E-1,3E-1,-1.0588236E-1,3E-1,-1.20000005E-1],"categories":[],"categories_nodes":[],"categories_segments":[],"categories_sizes":[],"default_left":[0,0,0,0,0,0,0,0,0,0,0,0,0,0,0,0,0,0,0,0,0,0,0,0,0,0,0,0,0,0,0,0,0,0,0,0,0,0,0,0,0,0,0,0,0,0,0,0,0,0,0,0,0,0,0,0,0,0,0,0,0,0,0,0,0,0,0,0,0,0,0,0,0,0,0,0,0,0,0,0,0,0,0,0,0,0,0,0,0,0,0,0,0,0,0,0,0,0,0,0,0,0,0,0,0,0,0,0,0,0,0,0,0,0,0,0,0,0,0,0,0],"id":1,"left_children":[1,3,5,7,9,11,13,15,17,19,21,23,25,27,29,31,33,35,37,39,41,43,45,47,49,51,53,55,57,59,61,63,65,67,69,71,73,75,77,79,81,83,85,87,89,91,93,95,97,99,101,103,105,107,109,111,113,-1,-1,115,117,119,-1,-1,-1,-1,-1,-1,-1,-1,-1,-1,-1,-1,-1,-1,-1,-1,-1,-1,-1,-1,-1,-1,-1,-1,-1,-1,-1,-1,-1,-1,-1,-1,-1,-1,-1,-1,-1,-1,-1,-1,-1,-1,-1,-1,-1,-1,-1,-1,-1,-1,-1,-1,-1,-1,-1,-1,-1,-1,-1],"loss_changes":[4.6059316E3,1.8545566E3,8.279838E2,1.1109707E3,2.6334958E2,2.7398447E2,4.8561157E1,6.2102734E2,4.0683926E2,1.5780751E2,2.976593E1,6.998428E1,8.69178E1,1.0571411E1,2.4275545E1,1.9844183E2,1.4674219E2,1.8170628E2,2.503424E1,3.0883743E1,3.7203148E1,8.1315E0,1.0342228E1,2.2024231E1,3.981426E1,5.2382034E1,2.2412668E1,7.6328735E0,1.9617379E0,9.345527E0,5.9423065E0,1.6379266E2,2.8897095E0,1.1907617E2,6.8299095E1,9.61133E1,8E0,1.5288452E1,1.8156008E1,2.1671791E1,1.0293396E1,1.5703415E1,1.3388545E1,5.942322E0,5.1757097E0,5.92445E0,4.4518976E0,1.1210632E1,1.5259849E1,3.5692665E1,1.3836952E1,2.2520035E1,1.9502722E1,1.439768E1,1.0280141E1,6.2873535E0,4.7671056E0,0E0,0E0,6.836828E0,2.8897057E0,3.9000015E0,0E0,0E0,0E0,0E0,0E0,0E0,0E0,0E0,0E0,0E0,0E0,0E0,0E0,0E0,0E0,0E0,0E0,0E0,0E0,0E0,0E0,0E0,0E0,0E0,0E0,0E0,0E0,0E0,0E0,0E0,0E0,0E0,0E0,0E0,0E0,0E0,0E0,0E0,0E0,0E0,0E0,0E0,0E0,0E0,0E0,0E0,0E0,0E0,0E0,0E0,0E0,0E0,0E0,0E0,0E0,0E0,0E0,0E0,0E0],"parents":[2147483647,0,0,1,1,2,2,3,3,4,4,5,5,6,6,7,7,8,8,9,9,10,10,11,11,12,12,13,13,14,14,15,15,16,16,17,17,18,18,19,19,20,20,21,21,22,22,23,23,24,24,25,25,26,26,27,27,28,28,29,29,30,30,31,31,32,32,33,33,34,34,35,35,36,36,37,37,38,38,39,39,40,40,41,41,42,42,43,43,44,44,45,45,46,46,47,47,48,48,49,49,50,50,51,51,52,52,53,53,54,54,55,55,56,56,59,59,60,60,61,61],"right_children":[2,4,6,8,10,12,14,16,18,20,22,24,26,28,30,32,34,36,38,40,42,44,46,48,50,52,54,56,58,60,62,64,66,68,70,72,74,76,78,80,82,84,86,88,90,92,94,96,98,100,102,104,106,108,110,112,114,-1,-1,116,118,120,-1,-1,-1,-1,-1,-1,-1,-1,-1,-1,-1,-1,-1,-1,-1,-1,-1,-1,-1,-1,-1,-1,-1,-1,-1,-1,-1,-1,-1,-1,-1,-1,-1,-1,-1,-1,-1,-1,-1,-1,-1,-1,-1,-1,-1,-1,-1,-1,-1,-1,-1,-1,-1,-1,-1,-1,-1,-1,-1],"split_conditions":[2E0,1.3389607E-1,3.1136908E-2,2.0856838E-1,4.0286873E-2,2E1,1.4568128E-1,3E0,3.7287988E-2,5.3592306E-2,2.0952022E-1,1E0,-7.234E-1,1.7105879E-1,3E0,3.1136908E-2,3.048713E-1,5.1470958E-2,1.02416344E-1,5.465372E-2,2.5529772E-1,1.5940218E-1,2.0989212E-1,8.129628E-2,1.01894625E-1,4E0,1.03546396E-1,2.198217E-1,2.6267927E-2,2.6426831E-2,8.441797E-2,5.9901416E-2,2.3675837E-1,1.6324222E-1,4.3092947E-2,6E0,1.760458E-1,4.9411783E-1,3.1136908E-2,3.4478545E-2,1.5184224E-1,3E0,1.2166924E-1,1.3879928E-1,9.0632156E-2,2.3896666E0,2E0,1E1,1.0359817E-1,3.6068637E-2,1.4E1,2.599268E-1,1.3E1,7.6E1,8.056894E-2,8E0,-9.623E-1,-1.6595745E-1,1.7647061E-1,8.644765E-2,1.1926775E-1,2.3272784E-1,-1.3846155E-1,8.302062E-2,3E-1,3E-1,-1.0588236E-1,3E-1,1.2210835E-1,4.713585E-2,3E-1,-8.4622644E-2,1.4067693E-1,3E-1,-1.5E-1,3E-1,4.615385E-2,8.221574E-2,3E-1,-2.8229257E-2,3E-1,-1.1059507E-1,2.3076925E-1,3.687151E-2,3E-1,1.8529412E-1,-5.309735E-2,3E-1,-1.3846155E-1,-1.322034E-1,3E-1,-8.5714296E-2,3E-1,2.8695655E-1,-1.09359615E-1,-1.5878904E-1,-5.314506E-2,-7.204503E-2,3E-1,-3.100559E-2,1.5902852E-1,-1.13447934E-1,1.6204381E-1,3E-1,-5.954199E-2,-9.574468E-3,3E-1,2.0020224E-2,2.0451467E-1,-9.227615E-2,1.1067962E-1,3E-1,3.896104E-2,3E-1,-6.0000002E-2,-3.2967036E-3,2.9032257E-1,3E-1,-1.0588236E-1,3E-1,-1.20000005E-1],"split_indices":[22,289,231,176,231,12,176,12,194,143,107,35,20,139,35,231,306,231,255,107,289,108,289,143,176,22,176,290,272,267,341,194,313,99,231,67,221,176,231,310,301,67,107,242,208,8,59,62,304,194,67,255,50,10,143,22,20,0,0,288,280,271,0,0,0,0,0,0,0,0,0,0,0,0,0,0,0,0,0,0,0,0,0,0,0,0,0,0,0,0,0,0,0,0,0,0,0,0,0,0,0,0,0,0,0,0,0,0,0,0,0,0,0,0,0,0,0,0,0,0,0],"split_type":[0,0,0,0,0,0,0,0,0,0,0,0,0,0,0,0,0,0,0,0,0,0,0,0,0,0,0,0,0,0,0,0,0,0,0,0,0,0,0,0,0,0,0,0,0,0,0,0,0,0,0,0,0,0,0,0,0,0,0,0,0,0,0,0,0,0,0,0,0,0,0,0,0,0,0,0,0,0,0,0,0,0,0,0,0,0,0,0,0,0,0,0,0,0,0,0,0,0,0,0,0,0,0,0,0,0,0,0,0,0,0,0,0,0,0,0,0,0,0,0,0],"sum_hessian":[2.420025E4,1.97715E4,4.42875E3,1.783875E4,1.93275E3,3.89625E3,5.325E2,1.6049625E4,1.789125E3,1.70325E3,2.295E2,3.202875E3,6.93375E2,3.945E2,1.38E2,2.33625E3,1.3713375E4,1.36575E3,4.23375E2,1.4655E3,2.3775E2,1.9125E2,3.825E1,2.218875E3,9.84E2,3.0975E2,3.83625E2,3.885E2,6E0,1.0425E2,3.375E1,2.17425E3,1.62E2,1.3357875E4,3.555E2,1.261125E3,1.04625E2,3.18E2,1.05375E2,5.98125E2,8.67375E2,1.4925E2,8.85E1,1.82625E2,8.625E0,1.2E1,2.625E1,1.94925E3,2.69625E2,4.74375E2,5.09625E2,2.0325E2,1.065E2,1.77E2,2.06625E2,3.77625E2,1.0875E1,4.875E0,1.125E0,9.675E1,7.5E0,3.15E1,2.25E0,1.884375E3,2.89875E2,1.60875E2,1.125E0,1.3017375E4,3.405E2,3.045E2,5.1E1,1.059E3,2.02125E2,1.01625E2,3E0,2.9625E2,2.175E1,8.475E1,2.0625E1,5.835E2,1.4625E1,8.6025E2,7.125E0,2.1375E1,1.27875E2,3.3E1,5.55E1,1.80375E2,2.25E0,6.375E0,2.25E0,3.375E0,8.625E0,1.875E0,2.4375E1,1.852875E3,9.6375E1,2.655E2,4.125E0,3.57E2,1.17375E2,4.935E2,1.6125E1,1.87875E2,1.5375E1,9.3E1,1.35E1,1.22625E2,5.4375E1,1.81875E2,2.475E1,3.69E2,8.625E0,1.875E0,9E0,9E1,6.75E0,6.375E0,1.125E0,3E1,1.5E0],"tree_param":{"num_deleted":"0","num_feature":"346","num_nodes":"121","size_leaf_vector":"1"}},{"base_weights":[-6.342028E-1,-6.4156115E-1,-5.292269E-1,-6.4477175E-1,-5.4715097E-1,-5.4441077E-1,4.742268E-1,-6.466601E-1,-5.0043595E-1,-5.634907E-1,1.5384616E-1,-5.706428E-1,-2.0568928E-1,8.4931505E-1,-1.7142859E-1,-6.4867014E-1,-5.570871E-1,-5.5278313E-1,1.8348623E-2,-5.7211703E-1,2.769231E-1,-6.25E-2,3E-1,-5.846814E-1,-2.1538462E-1,-3.6363637E-1,3.119266E-1,-8E-2,1E0,-6.5361357E-1,-6.254981E-1,-5.7045037E-1,4.2857143E-1,-5.637066E-1,2.4000001E-1,4E-1,-1.8139535E-1,-5.771626E-1,3.1578946E-1,-2.4E-1,3E-1,-3.272727E-1,3E-1,-5.996409E-1,-3.1921825E-1,-3.6712328E-1,3.6734694E-1,-4.117647E-1,7.5E-1,6.583851E-1,-1.7538463E-1,-1.6097562E-1,3E-1,1E0,-1.20000005E-1,-1.9619927E-1,-1.1559634E-1,-1.9195427E-1,-1.6698658E-1,-1.7547476E-1,-2.5210086E-2,-7.5E-2,3E-1,-1.7427017E-1,3.0508475E-2,-4.186047E-2,3E-1,-1.7725801E-1,-6.782609E-2,-1.3846155E-1,3E-1,-1.6097562E-1,1.7647061E-1,-1.5789475E-1,1.826087E-1,-1.8390019E-1,-1.166922E-1,-1.3282444E-1,1.10204086E-1,-1.2808989E-1,3E-1,-1.6216217E-2,3E-1,-1.3323398E-1,3E-1,3E-1,-1.0588236E-1,3E-1,-3.529412E-2,3E-1,-0E0],"categories":[],"categories_nodes":[],"categories_segments":[],"categories_sizes":[],"default_left":[0,0,0,0,0,0,0,0,0,0,0,0,0,0,0,0,0,0,0,0,0,0,0,0,0,0,0,0,0,0,0,0,0,0,0,0,0,0,0,0,0,0,0,0,0,0,0,0,0,0,0,0,0,0,0,0,0,0,0,0,0,0,0,0,0,0,0,0,0,0,0,0,0,0,0,0,0,0,0,0,0,0,0,0,0,0,0,0,0,0,0],"id":2,"left_children":[1,3,5,7,9,11,13,15,17,19,21,23,25,27,-1,29,31,33,35,37,39,41,-1,43,45,47,49,51,53,55,57,59,61,63,-1,65,-1,67,69,71,-1,73,-1,75,77,79,81,83,85,87,-1,-1,-1,89,-1,-1,-1,-1,-1,-1,-1,-1,-1,-1,-1,-1,-1,-1,-1,-1,-1,-1,-1,-1,-1,-1,-1,-1,-1,-1,-1,-1,-1,-1,-1,-1,-1,-1,-1,-1,-1],"loss_changes":[1.8354492E1,6.5009766E0,2.4499176E1,5.635742E0,8.680145E0,1.3812653E1,9.9964905E0,3.5234375E0,7.797386E0,5.475174E0,4.264423E0,7.128113E0,9.454042E0,5.875617E0,0E0,2.006836E0,6.5750885E0,4.3003845E0,6.721058E0,3.4358673E0,4.361923E0,5.1602273E0,0E0,5.3628235E0,5.163915E0,5.025402E0,8.84915E0,3.8106098E0,3.8999996E0,1.5371094E0,3.3328857E0,3.2904358E0,2.9642859E0,3.0222702E0,0E0,6.6593018E0,0E0,3.3407745E0,3.7186232E0,1.8509039E0,0E0,2.8819642E0,0E0,3.4847412E0,6.671909E0,4.338045E0,4.3739657E0,4.5064535E0,2.6397057E0,7.269045E0,0E0,0E0,0E0,1.5E0,0E0,0E0,0E0,0E0,0E0,0E0,0E0,0E0,0E0,0E0,0E0,0E0,0E0,0E0,0E0,0E0,0E0,0E0,0E0,0E0,0E0,0E0,0E0,0E0,0E0,0E0,0E0,0E0,0E0,0E0,0E0,0E0,0E0,0E0,0E0,0E0,0E0],"parents":[2147483647,0,0,1,1,2,2,3,3,4,4,5,5,6,6,7,7,8,8,9,9,10,10,11,11,12,12,13,13,15,15,16,16,17,17,18,18,19,19,20,20,21,21,23,23,24,24,25,25,26,26,27,27,28,28,29,29,30,30,31,31,32,32,33,33,35,35,37,37,38,38,39,39,41,41,43,43,44,44,45,45,46,46,47,47,48,48,49,49,53,53],"right_children":[2,4,6,8,10,12,14,16,18,20,22,24,26,28,-1,30,32,34,36,38,40,42,-1,44,46,48,50,52,54,56,58,60,62,64,-1,66,-1,68,70,72,-1,74,-1,76,78,80,82,84,86,88,-1,-1,-1,90,-1,-1,-1,-1,-1,-1,-1,-1,-1,-1,-1,-1,-1,-1,-1,-1,-1,-1,-1,-1,-1,-1,-1,-1,-1,-1,-1,-1,-1,-1,-1,-1,-1,-1,-1,-1,-1],"split_conditions":[1.120041E-1,1.2059426E-1,1.3395475E-1,1.7028458E-1,1.4753579E-1,7.833962E-2,2.7321614E-2,1.69519E-1,1.4373992E-1,2.5163722E-1,1.1432005E-1,1.514789E-1,2E0,7.714049E1,-1.7142859E-1,6.846075E0,2.068981E-1,7E0,2.7321614E-2,1.9891156E-1,1E0,1.4441003E-1,3E-1,1.8790737E-1,6.333915E-2,1.2318591E-1,4.645236E-2,6E0,1.3332875E-1,4.144314E-1,1E0,1.4504355E-1,2.7186096E0,1.1193505E-1,2.4000001E-1,6.359667E-2,-1.8139535E-1,1.3955419E-1,2.4070006E-2,2.3893945E-2,3E-1,2.3014542E-2,3E-1,9.5506676E-2,8.48E-1,2.1127696E-1,4E0,1.738871E-1,2.5075372E-2,4.3738373E-2,-1.7538463E-1,-1.6097562E-1,3E-1,4E0,-1.20000005E-1,-1.9619927E-1,-1.1559634E-1,-1.9195427E-1,-1.6698658E-1,-1.7547476E-1,-2.5210086E-2,-7.5E-2,3E-1,-1.7427017E-1,3.0508475E-2,-4.186047E-2,3E-1,-1.7725801E-1,-6.782609E-2,-1.3846155E-1,3E-1,-1.6097562E-1,1.7647061E-1,-1.5789475E-1,1.826087E-1,-1.8390019E-1,-1.166922E-1,-1.3282444E-1,1.10204086E-1,-1.2808989E-1,3E-1,-1.6216217E-2,3E-1,-1.3323398E-1,3E-1,3E-1,-1.0588236E-1,3E-1,-3.529412E-2,3E-1,-0E0],"split_indices":[196,324,304,304,145,340,143,340,141,330,295,324,28,3,0,1,174,61,143,174,22,166,0,295,134,106,306,89,291,174,28,195,0,100,0,178,0,340,308,276,0,148,0,287,18,211,31,100,160,239,0,0,0,41,0,0,0,0,0,0,0,0,0,0,0,0,0,0,0,0,0,0,0,0,0,0,0,0,0,0,0,0,0,0,0,0,0,0,0,0,0],"split_type":[0,0,0,0,0,0,0,0,0,0,0,0,0,0,0,0,0,0,0,0,0,0,0,0,0,0,0,0,0,0,0,0,0,0,0,0,0,0,0,0,0,0,0,0,0,0,0,0,0,0,0,0,0,0,0,0,0,0,0,0,0,0,0,0,0,0,0,0,0,0,0,0,0,0,0,0,0,0,0,0,0,0,0,0,0,0,0,0,0,0,0],"sum_hessian":[2.420025E4,2.261025E4,1.59E3,2.1861E4,7.4925E2,1.56675E3,2.325E1,2.157525E4,2.8575E2,7.32375E2,1.6875E1,1.4535E3,1.1325E2,1.725E1,6E0,2.1095625E4,4.79625E2,2.595E2,2.625E1,7.2525E2,7.125E0,1.5E1,1.875E0,1.397625E3,5.5875E1,8.7E1,2.625E1,5.25E0,1.2E1,1.7364E4,3.731625E3,4.73625E2,6E0,2.58E2,1.5E0,1.65E1,9.75E0,7.215E2,3.75E0,5.25E0,1.875E0,1.275E1,2.25E0,1.321875E3,7.575E1,4.4625E1,1.125E1,8.4E1,3E0,1.9125E1,7.125E0,4.125E0,1.125E0,1.05E1,1.5E0,1.733775E4,2.625E1,3.081375E3,6.5025E2,4.5975E2,1.3875E1,3E0,3E0,2.51625E2,6.375E0,9.75E0,6.75E0,6.9375E2,2.775E1,2.25E0,1.5E0,4.125E0,1.125E0,1.0875E1,1.875E0,1.24125E3,8.0625E1,6.45E1,1.125E1,4.35E1,1.125E0,8.25E0,3E0,8.2875E1,1.125E0,1.875E0,1.125E0,1.1625E1,7.5E0,9E0,1.5E0],"tree_param":{"num_deleted":"0","num_feature":"346","num_nodes":"91","size_leaf_vector":"1"}},{"base_weights":[1.14642836E-1,-1.3731192E-1,1E0,3.839547E-1,-3.2806024E-1,1E0,4.1755434E-2,2.1347465E-1,1E0,-4.4579893E-1,2.1966334E-1,1E0,3.618912E-1,-2.112251E-1,6.4553314E-1,7.354409E-1,4.4101775E-2,1E0,3.8801906E-1,-4.7833392E-1,1.5991779E-1,3.9948636E-1,-3.4902596E-1,1E0,4.2709866E-1,5.9592262E-2,9.9559474E-1,4.3283582E-1,-3.345298E-1,8.765316E-1,-1.0149254E-1,8.0441326E-1,-5.1121074E-1,-6.61423E-2,7.3460245E-1,1E0,-1.438849E-2,5.0858545E-1,-2.0472442E-1,-5.048345E-1,-7.3008455E-2,3.5275167E-1,-4.6689895E-1,5.696531E-1,-3.554007E-1,-4.243033E-1,-3.1479537E-2,1E0,-1.4432989E-1,7.6521736E-1,-2.780269E-1,-1.116218E-1,7.1356785E-1,1E0,2.5974026E-2,6.1349694E-2,9.724771E-1,-4.292314E-1,2.1791768E-1,3.044776E-1,1E0,5.945946E-1,-2.8996283E-1,2.5920314E-1,-1.8054712E-1,-1.7884617E-1,1.5789475E-1,-3.776224E-2,2.9114756E-1,2.6541555E-1,-8.053692E-3,3E-1,-1.747573E-2,-4.251969E-2,3E-1,6.710526E-2,2.3402889E-1,-9.288703E-2,2.8695655E-1,-1.3379148E-1,-1.8839651E-1,-5.390576E-2,1.7078087E-1,1.4481422E-1,-8.4639505E-2,-1.5428573E-1,9.295775E-2,2.473854E-1,7.30136E-2,-1.1732086E-1,1.960396E-1,-1.3708821E-1,3.964758E-2,6.0586322E-2,-1.3314122E-1,3E-1,1.2928177E-1,-9.3641624E-2,2.6896554E-1,-7.058824E-3,2.802111E-1,-1.2986302E-1,1.14606746E-1,-5.7675757E-2,2.1459855E-1,3E-1,-3.75E-2,3E-1,2.5352113E-2,2.2105263E-1,-1.6595745E-1,3E-1,-2.781457E-2,3E-1,-5.084746E-2,-1.5007314E-1,3.550296E-3,2.8965518E-1,-2.1639345E-2,2.2634731E-1,-4.0909093E-2,3E-1,-1.4482759E-1,3E-1,-9.4736844E-2,-1.2580645E-1,2.6896554E-1],"categories":[],"categories_nodes":[],"categories_segments":[],"categories_sizes":[],"default_left":[0,0,0,0,0,0,0,0,0,0,0,0,0,0,0,0,0,0,0,0,0,0,0,0,0,0,0,0,0,0,0,0,0,0,0,0,0,0,0,0,0,0,0,0,0,0,0,0,0,0,0,0,0,0,0,0,0,0,0,0,0,0,0,0,0,0,0,0,0,0,0,0,0,0,0,0,0,0,0,0,0,0,0,0,0,0,0,0,0,0,0,0,0,0,0,0,0,0,0,0,0,0,0,0,0,0,0,0,0,0,0,0,0,0,0,0,0,0,0,0,0,0,0,0,0,0,0],"id":3,"left_children":[1,3,5,7,9,11,13,15,17,19,21,23,25,27,29,31,33,35,37,39,41,43,45,47,49,51,53,55,57,59,61,63,65,67,69,71,73,75,77,79,81,83,85,87,89,91,93,95,97,99,101,103,105,107,109,111,113,115,117,119,121,123,125,-1,-1,-1,-1,-1,-1,-1,-1,-1,-1,-1,-1,-1,-1,-1,-1,-1,-1,-1,-1,-1,-1,-1,-1,-1,-1,-1,-1,-1,-1,-1,-1,-1,-1,-1,-1,-1,-1,-1,-1,-1,-1,-1,-1,-1,-1,-1,-1,-1,-1,-1,-1,-1,-1,-1,-1,-1,-1,-1,-1,-1,-1,-1,-1],"loss_changes":[6.603975E3,1.96612E3,5.3777295E2,6.4443567E2,9.336301E2,1.4217578E2,8.9758896E1,3.7952066E2,6.777136E1,2.3488794E2,2.6212555E2,5.4714844E1,6.730073E1,3.3042763E1,3.0028427E1,9.084534E1,2.4687936E2,3.4757202E1,1.3226868E1,1.2142627E2,7.366969E1,2.5029156E2,1.471154E1,3.0755371E1,4.068389E1,2.6854433E1,8.129288E0,1.3371777E1,1.8313168E1,1.723529E1,5.666065E0,8.4076355E1,5.2270517E0,1.7331256E2,5.1061157E1,2.7837402E1,4.6306014E0,1.1650963E1,4.163743E0,7.666211E1,4.772986E1,3.8555347E1,5.441311E0,1.3199634E2,1.3165188E1,9.108078E0,1.1555472E1,1.365332E1,4.5155745E0,1.53349E1,5.8634934E0,1.2831268E1,1.5168343E1,6.4383774E0,4.370326E0,8.171128E0,9.066223E0,9.327873E0,1.1264029E1,8.410234E0,6.9698257E0,5.703414E0,5.5382686E0,0E0,0E0,0E0,0E0,0E0,0E0,0E0,0E0,0E0,0E0,0E0,0E0,0E0,0E0,0E0,0E0,0E0,0E0,0E0,0E0,0E0,0E0,0E0,0E0,0E0,0E0,0E0,0E0,0E0,0E0,0E0,0E0,0E0,0E0,0E0,0E0,0E0,0E0,0E0,0E0,0E0,0E0,0E0,0E0,0E0,0E0,0E0,0E0,0E0,0E0,0E0,0E0,0E0,0E0,0E0,0E0,0E0,0E0,0E0,0E0,0E0,0E0,0E0,0E0],"parents":[2147483647,0,0,1,1,2,2,3,3,4,4,5,5,6,6,7,7,8,8,9,9,10,10,11,11,12,12,13,13,14,14,15,15,16,16,17,17,18,18,19,19,20,20,21,21,22,22,23,23,24,24,25,25,26,26,27,27,28,28,29,29,30,30,31,31,32,32,33,33,34,34,35,35,36,36,37,37,38,38,39,39,40,40,41,41,42,42,43,43,44,44,45,45,46,46,47,47,48,48,49,49,50,50,51,51,52,52,53,53,54,54,55,55,56,56,57,57,58,58,59,59,60,60,61,61,62,62],"right_children":[2,4,6,8,10,12,14,16,18,20,22,24,26,28,30,32,34,36,38,40,42,44,46,48,50,52,54,56,58,60,62,64,66,68,70,72,74,76,78,80,82,84,86,88,90,92,94,96,98,100,102,104,106,108,110,112,114,116,118,120,122,124,126,-1,-1,-1,-1,-1,-1,-1,-1,-1,-1,-1,-1,-1,-1,-1,-1,-1,-1,-1,-1,-1,-1,-1,-1,-1,-1,-1,-1,-1,-1,-1,-1,-1,-1,-1,-1,-1,-1,-1,-1,-1,-1,-1,-1,-1,-1,-1,-1,-1,-1,-1,-1,-1,-1,-1,-1,-1,-1,-1,-1,-1,-1,-1,-1],"split_conditions":[2E0,5E0,3E0,1.4440592E-1,1.2417012E-1,3.1136908E-2,4E0,4E0,1E0,1.0427769E-1,3.0856492E-2,1.1090733E-1,1.3949914E-1,1E0,3.65724E-2,3.1136908E-2,1.752044E-1,9.446443E-2,2.382763E-2,1.6224228E-1,7.7870496E-2,3.1136908E-2,3.0751854E-1,4.7197316E-2,2.6E1,4E0,2.6426831E-2,9.373529E-2,9.382697E-2,5.709196E-2,6E0,2.6537394E-2,1.6920698E-1,1.764696E-1,1.0832835E-1,1.540151E-1,2.3062697E-1,1E0,3.3799765E-1,2.6537394E-2,9.648859E-2,3.1136908E-2,1.1E1,1E0,1.7607665E-1,1.134575E-1,2E0,3.17555E-2,7.147335E-2,1E0,1.7571138E-1,1.4692383E-1,5.9901416E-2,1.1178598E-1,4E0,1.2E1,2.4936419E-2,9.6366785E-2,2E0,5E0,1.2E1,2.103834E0,8.5943125E-2,2.5920314E-1,-1.8054712E-1,-1.7884617E-1,1.5789475E-1,-3.776224E-2,2.9114756E-1,2.6541555E-1,-8.053692E-3,3E-1,-1.747573E-2,-4.251969E-2,3E-1,6.710526E-2,2.3402889E-1,-9.288703E-2,2.8695655E-1,-1.3379148E-1,-1.8839651E-1,-5.390576E-2,1.7078087E-1,1.4481422E-1,-8.4639505E-2,-1.5428573E-1,9.295775E-2,2.473854E-1,7.30136E-2,-1.1732086E-1,1.960396E-1,-1.3708821E-1,3.964758E-2,6.0586322E-2,-1.3314122E-1,3E-1,1.2928177E-1,-9.3641624E-2,2.6896554E-1,-7.058824E-3,2.802111E-1,-1.2986302E-1,1.14606746E-1,-5.7675757E-2,2.1459855E-1,3E-1,-3.75E-2,3E-1,2.5352113E-2,2.2105263E-1,-1.6595745E-1,3E-1,-2.781457E-2,3E-1,-5.084746E-2,-1.5007314E-1,3.550296E-3,2.8965518E-1,-2.1639345E-2,2.2634731E-1,-4.0909093E-2,3E-1,-1.4482759E-1,3E-1,-9.4736844E-2,-1.2580645E-1,2.6896554E-1],"split_indices":[22,12,35,176,176,231,22,10,35,99,107,107,176,61,231,231,290,107,194,290,107,231,176,304,10,22,267,176,223,176,71,107,328,99,194,231,143,42,258,107,223,231,73,35,151,99,35,144,135,79,176,290,194,107,54,27,325,290,61,50,35,8,162,0,0,0,0,0,0,0,0,0,0,0,0,0,0,0,0,0,0,0,0,0,0,0,0,0,0,0,0,0,0,0,0,0,0,0,0,0,0,0,0,0,0,0,0,0,0,0,0,0,0,0,0,0,0,0,0,0,0,0,0,0,0,0,0],"split_type":[0,0,0,0,0,0,0,0,0,0,0,0,0,0,0,0,0,0,0,0,0,0,0,0,0,0,0,0,0,0,0,0,0,0,0,0,0,0,0,0,0,0,0,0,0,0,0,0,0,0,0,0,0,0,0,0,0,0,0,0,0,0,0,0,0,0,0,0,0,0,0,0,0,0,0,0,0,0,0,0,0,0,0,0,0,0,0,0,0,0,0,0,0,0,0,0,0,0,0,0,0,0,0,0,0,0,0,0,0,0,0,0,0,0,0,0,0,0,0,0,0,0,0,0,0,0,0],"sum_hessian":[2.420025E4,1.97715E4,4.42875E3,5.2965E3,1.4475E4,3.843E3,5.8575E2,4.29225E3,1.00425E3,1.1914125E4,2.560875E3,3.492375E3,3.50625E2,4.1325E2,1.725E2,1.05075E3,3.2415E3,8.21625E2,1.82625E2,1.1307E4,6.07125E2,1.945875E3,6.15E2,3.323625E3,1.6875E2,2.38125E2,1.125E2,6.6E1,3.4725E2,1.31625E2,4.0875E1,9.96E2,5.475E1,2.796E3,4.455E2,7.87875E2,3.375E1,1.51875E2,3.075E1,1.0612875E4,6.94125E2,4.64625E2,1.425E2,1.588125E3,3.5775E2,4.96875E2,1.18125E2,3.300375E3,2.325E1,1.14E2,5.475E1,1.89375E2,4.875E1,1.03875E2,8.625E0,3.975E1,2.625E1,2.96625E2,5.0625E1,4.0875E1,9.075E1,8.25E0,3.2625E1,9.55875E2,4.0125E1,5.1E1,3.75E0,2.6445E3,1.515E2,3.72E2,7.35E1,7.63125E2,2.475E1,3.075E1,3E0,7.5E1,7.6875E1,2.8875E1,1.875E0,7.183875E3,3.429E3,5.95875E2,9.825E1,3.85875E2,7.875E1,1.34625E2,7.875E0,8.90625E2,6.975E2,3.46125E2,1.1625E1,4.695E2,2.7375E1,7.575E1,4.2375E1,3.256125E3,4.425E1,2.0625E1,2.625E0,2.025E1,9.375E1,4.4625E1,1.0125E1,1.7325E2,1.6125E1,3.375E1,1.5E1,9.6E1,7.875E0,3.75E0,4.875E0,3E0,3.675E1,1.9875E1,6.375E0,2.55375E2,4.125E1,1.35E1,3.7125E1,1.9875E1,2.1E1,8.8125E1,2.625E0,4.5E0,3.75E0,3E1,2.625E0],"tree_param":{"num_deleted":"0","num_feature":"346","num_nodes":"127","size_leaf_vector":"1"}},{"base_weights":[-2.75255E-1,-3.9488342E-1,4.8582986E-1,-2.4224034E-1,-5.0247085E-1,-1.252539E-3,8.6710495E-1,-1.0008853E-1,-4.2446336E-1,-5.316378E-1,-3.8091776E-1,1.4649287E-1,-3.8147342E-1,1E0,2.8777924E-1,-2.2683847E-1,1.862069E-1,-3.4819132E-1,-5.9298134E-1,-4.8648134E-1,-5.8348835E-1,-4.442429E-1,-1.042923E-1,3.2160094E-1,-2.7507403E-1,-4.1699857E-1,1.3811581E-1,1E0,3.7009555E-1,6.1235268E-2,7.636694E-1,-2.5520802E-1,6.769973E-1,6.260205E-2,5.180228E-1,-4.0775418E-1,-4.7953907E-2,-6.0683125E-1,-4.315544E-1,-5.137849E-1,-2.8560817E-1,-5.940164E-1,-4.3691483E-1,-4.5666167E-1,5.5076826E-1,2.9633448E-1,-4.2001897E-1,2.3554187E-1,1E0,-1.5341356E-1,-5.2015066E-1,-4.8360988E-1,-1.7969634E-1,-1.8508391E-1,1E0,1E0,6.205849E-1,-2.0113429E-2,8.6965173E-1,-1.47718545E-2,7.479548E-1,-1.00459844E-1,9.0936744E-1,-8.603443E-2,1.1478466E-1,-4.8225496E-2,2.3096372E-1,-1.4495848E-3,1.9910558E-1,9.487493E-2,2.2855173E-1,-1.2849332E-1,4.0814202E-2,-5.8672458E-2,1.0119998E-1,-1.8260416E-1,-2.4355087E-2,-1.5848005E-1,1.1372328E-1,-1.4372613E-1,-1.7702985E-1,-9.797909E-2,1.1186007E-1,-1.784866E-1,2.7224215E-2,-1.5395448E-1,-2.2488933E-2,-1.132066E-1,-1.6877724E-1,-1.5832467E-1,2.4243896E-1,1.3094793E-1,-1.1266647E-1,-9.1138944E-2,-1.774684E-1,4.1237064E-3,1.5239766E-1,3E-1,-1.01739325E-1,-5.645363E-2,3E-1,-1.6494462E-1,1.964529E-1,-1.498605E-1,1.5158223E-1,1.5599573E-1,-9.113549E-2,2.4466293E-1,-1.06217764E-1,3E-1,-1.1024321E-1,3E-1,3.760957E-3,2.513812E-1,-4.6057114E-3,-4.1066915E-2,2.2951E-1,2.9233372E-1,-1.4791162E-1,1.08716115E-1,-4.64455E-2,3E-1,-1.0679442E-1,3E-1,-9.144203E-2,2.9586303E-1,-4.519944E-3],"categories":[],"categories_nodes":[],"categories_segments":[],"categories_sizes":[],"default_left":[0,0,0,0,0,0,0,0,0,0,0,0,0,0,0,0,0,0,0,0,0,0,0,0,0,0,0,0,0,0,0,0,0,0,0,0,0,0,0,0,0,0,0,0,0,0,0,0,0,0,0,0,0,0,0,0,0,0,0,0,0,0,0,0,0,0,0,0,0,0,0,0,0,0,0,0,0,0,0,0,0,0,0,0,0,0,0,0,0,0,0,0,0,0,0,0,0,0,0,0,0,0,0,0,0,0,0,0,0,0,0,0,0,0,0,0,0,0,0,0,0,0,0,0,0,0,0],"id":4,"left_children":[1,3,5,7,9,11,13,15,17,19,21,23,25,27,29,31,33,35,37,39,41,43,45,47,49,51,53,55,57,59,61,63,65,67,69,71,73,75,77,79,81,83,85,87,89,91,93,95,97,99,101,103,105,107,109,111,113,115,117,119,121,123,125,-1,-1,-1,-1,-1,-1,-1,-1,-1,-1,-1,-1,-1,-1,-1,-1,-1,-1,-1,-1,-1,-1,-1,-1,-1,-1,-1,-1,-1,-1,-1,-1,-1,-1,-1,-1,-1,-1,-1,-1,-1,-1,-1,-1,-1,-1,-1,-1,-1,-1,-1,-1,-1,-1,-1,-1,-1,-1,-1,-1,-1,-1,-1,-1],"loss_changes":[2.0683818E3,3.2226172E2,5.730965E2,2.102366E2,4.0617676E1,7.622795E1,1.3937097E2,1.6557477E2,4.5515015E1,2.1451416E1,3.9046143E1,7.222736E1,7.0667725E0,3.0300049E1,3.628433E1,8.125798E1,5.740226E1,4.3816345E1,2.2129211E0,2.7099976E1,6.401001E0,2.2686981E1,5.287164E1,4.1535347E1,8.487267E0,5.5352516E0,7.4437585E0,2.0987427E1,1.5394631E1,1.1984438E1,1.376392E1,6.186908E1,7.6333923E0,4.1405396E1,1.8450073E1,2.2922821E1,2.3210468E1,9.3917847E-1,7.328949E0,1.1294434E1,1.6226921E1,2.6414795E0,8.050583E0,1.4857086E1,6.764764E0,1.7527245E1,4.478199E0,3.727041E1,7.368141E0,8.21146E0,3.6678467E0,4.616623E0,7.06448E0,3.5457895E0,3.4063864E0,1.116626E1,2.1124508E1,4.25511E0,5.4239216E0,1.1017039E1,7.512719E0,4.441549E0,6.6231995E0,0E0,0E0,0E0,0E0,0E0,0E0,0E0,0E0,0E0,0E0,0E0,0E0,0E0,0E0,0E0,0E0,0E0,0E0,0E0,0E0,0E0,0E0,0E0,0E0,0E0,0E0,0E0,0E0,0E0,0E0,0E0,0E0,0E0,0E0,0E0,0E0,0E0,0E0,0E0,0E0,0E0,0E0,0E0,0E0,0E0,0E0,0E0,0E0,0E0,0E0,0E0,0E0,0E0,0E0,0E0,0E0,0E0,0E0,0E0,0E0,0E0,0E0,0E0,0E0],"parents":[2147483647,0,0,1,1,2,2,3,3,4,4,5,5,6,6,7,7,8,8,9,9,10,10,11,11,12,12,13,13,14,14,15,15,16,16,17,17,18,18,19,19,20,20,21,21,22,22,23,23,24,24,25,25,26,26,27,27,28,28,29,29,30,30,31,31,32,32,33,33,34,34,35,35,36,36,37,37,38,38,39,39,40,40,41,41,42,42,43,43,44,44,45,45,46,46,47,47,48,48,49,49,50,50,51,51,52,52,53,53,54,54,55,55,56,56,57,57,58,58,59,59,60,60,61,61,62,62],"right_children":[2,4,6,8,10,12,14,16,18,20,22,24,26,28,30,32,34,36,38,40,42,44,46,48,50,52,54,56,58,60,62,64,66,68,70,72,74,76,78,80,82,84,86,88,90,92,94,96,98,100,102,104,106,108,110,112,114,116,118,120,122,124,126,-1,-1,-1,-1,-1,-1,-1,-1,-1,-1,-1,-1,-1,-1,-1,-1,-1,-1,-1,-1,-1,-1,-1,-1,-1,-1,-1,-1,-1,-1,-1,-1,-1,-1,-1,-1,-1,-1,-1,-1,-1,-1,-1,-1,-1,-1,-1,-1,-1,-1,-1,-1,-1,-1,-1,-1,-1,-1,-1,-1,-1,-1,-1,-1],"split_conditions":[1.0905469E-1,1E0,5.465372E-2,1E0,1.2455824E-1,2E0,4.9112003E-2,1E0,5.4516517E-2,2E0,3.0856492E-2,2E0,7.6134294E-2,1.0782328E-1,2.5756127E-1,8.972418E-2,9.8752804E-2,4.5375157E-2,1.9182882E-1,4.8974827E-2,5.4970194E-2,1.8511058E-1,4.0660623E-2,2.700575E-2,3.1136908E-2,2E0,1.6E1,2E0,2.0252904E-1,7.6134294E-2,1.1020562E-1,1.3093825E-1,3E0,1.22243665E-1,7.64E-1,6.400454E-2,5.9532598E-2,4.0149474E-1,2.6537394E-2,2E0,3.5162404E-2,6.065054E-1,1.1941781E-1,2E0,1E1,6.236059E-2,3.1136908E-2,1E0,1.3393508E-1,1.4937943E-1,2.1641357E-1,3.7145223E-2,8.4E-2,6E0,6.7592785E-2,1.1971227E-1,7.616049E1,2.2878891E-1,1.2347329E-1,9.908902E-2,7E0,3.642857E0,1.3533214E-1,-8.603443E-2,1.1478466E-1,-4.8225496E-2,2.3096372E-1,-1.4495848E-3,1.9910558E-1,9.487493E-2,2.2855173E-1,-1.2849332E-1,4.0814202E-2,-5.8672458E-2,1.0119998E-1,-1.8260416E-1,-2.4355087E-2,-1.5848005E-1,1.1372328E-1,-1.4372613E-1,-1.7702985E-1,-9.797909E-2,1.1186007E-1,-1.784866E-1,2.7224215E-2,-1.5395448E-1,-2.2488933E-2,-1.132066E-1,-1.6877724E-1,-1.5832467E-1,2.4243896E-1,1.3094793E-1,-1.1266647E-1,-9.1138944E-2,-1.774684E-1,4.1237064E-3,1.5239766E-1,3E-1,-1.01739325E-1,-5.645363E-2,3E-1,-1.6494462E-1,1.964529E-1,-1.498605E-1,1.5158223E-1,1.5599573E-1,-9.113549E-2,2.4466293E-1,-1.06217764E-1,3E-1,-1.1024321E-1,3E-1,3.760957E-3,2.513812E-1,-4.6057114E-3,-4.1066915E-2,2.2951E-1,2.9233372E-1,-1.4791162E-1,1.08716115E-1,-4.64455E-2,3E-1,-1.0679442E-1,3E-1,-9.144203E-2,2.9586303E-1,-4.519944E-3],"split_indices":[289,79,107,54,255,22,143,35,231,54,107,54,108,231,289,108,255,107,255,114,289,108,143,108,231,35,59,22,289,108,107,107,72,114,18,108,255,278,107,22,289,176,107,22,88,231,231,35,136,97,189,107,19,38,332,301,4,107,239,143,39,2,203,0,0,0,0,0,0,0,0,0,0,0,0,0,0,0,0,0,0,0,0,0,0,0,0,0,0,0,0,0,0,0,0,0,0,0,0,0,0,0,0,0,0,0,0,0,0,0,0,0,0,0,0,0,0,0,0,0,0,0,0,0,0,0,0],"split_type":[0,0,0,0,0,0,0,0,0,0,0,0,0,0,0,0,0,0,0,0,0,0,0,0,0,0,0,0,0,0,0,0,0,0,0,0,0,0,0,0,0,0,0,0,0,0,0,0,0,0,0,0,0,0,0,0,0,0,0,0,0,0,0,0,0,0,0,0,0,0,0,0,0,0,0,0,0,0,0,0,0,0,0,0,0,0,0,0,0,0,0,0,0,0,0,0,0,0,0,0,0,0,0,0,0,0,0,0,0,0,0,0,0,0,0,0,0,0,0,0,0,0,0,0,0,0,0],"sum_hessian":[2.271454E4,1.962961E4,3.0849297E3,8.1168394E3,1.151277E4,1.3549568E3,1.7299728E3,4.5606416E3,3.556198E3,9.282128E3,2.230642E3,9.762301E2,3.7872665E2,1.3939812E3,3.3599167E2,3.1612756E3,1.399366E3,2.4502634E3,1.1059346E3,4.9668745E3,4.315253E3,1.8146307E3,4.160114E2,6.899003E2,2.8632974E2,3.5467444E2,2.4052198E1,1.3160962E3,7.7884926E1,2.2839473E2,1.07596954E2,3.0657651E3,9.55104E1,1.0204328E3,3.789331E2,2.0443375E3,4.0592575E2,1.0160053E3,8.992931E1,4.3711685E3,5.9570593E2,4.0232231E3,2.9203006E2,1.7927958E3,2.1834963E1,1.8338055E2,2.3263086E2,6.158848E2,7.401552E1,1.9243001E2,9.389975E1,2.7612698E2,7.854748E1,1.826316E1,5.789038E0,1.1643595E3,1.5173676E2,4.426712E1,3.361781E1,2.0651575E2,2.1878977E1,1.5568909E1,9.2028046E1,2.9216868E3,1.4407838E2,9.459497E0,8.6050896E1,9.1839264E2,1.0204019E2,2.0860045E2,1.7033266E2,1.9700767E3,7.4260864E1,2.9383618E2,1.12089554E2,1.012286E3,3.7193182E0,8.065508E1,9.274224E0,3.0099275E3,1.3612411E3,5.6127185E2,3.443406E1,4.0178447E3,5.378283E0,2.4086058E2,5.116946E1,1.0278407E3,7.6495514E2,4.004176E0,1.7830786E1,1.5201915E2,3.1361408E1,1.4032771E2,9.2303154E1,3.4008176E2,2.7580307E2,7.03491E1,3.6664133E0,1.8780113E2,4.628866E0,9.2106445E1,1.7933104E0,2.7223767E2,3.8892949E0,1.1351398E1,6.7196075E1,2.0857134E0,1.6177448E1,4.4326744E0,1.3563639E0,1.1528824E3,1.1476986E1,1.1284921E2,3.8887547E1,3.9254395E1,5.012726E0,3.1481705E1,2.1361024E0,5.548949E1,1.5102626E2,1.7458721E1,4.420256E0,1.5871859E0,1.3981723E1,8.490369E1,7.124354E0],"tree_param":{"num_deleted":"0","num_feature":"346","num_nodes":"127","size_leaf_vector":"1"}},{"base_weights":[6.176933E-1,4.465199E-1,1E0,5.901014E-1,-2.2607163E-1,1E0,3.525246E-1,4.6321887E-1,1E0,-3.4850934E-1,2.3225595E-1,1E0,4.7701445E-1,-1.4712913E-1,6.7630726E-1,5.5103976E-1,-1.4975119E-1,1E0,5.035369E-1,-4.2745546E-1,-1.3819349E-1,5.0894254E-1,-1.8883358E-1,1E0,1.373781E-1,9.4747394E-1,1.3665033E-2,-3.0331486E-1,5.5227464E-1,8.656988E-1,9.390236E-2,6.565106E-1,1.662113E-2,-2.4243228E-1,1.5260366E-1,1E0,4.3706962E-1,6.535882E-1,6.452557E-2,-4.9665302E-1,-3.0536208E-1,1.6460896E-1,-2.6092133E-1,6.571214E-1,1.3631502E-1,-2.4938531E-1,9.07879E-1,1E0,3.0844942E-1,-2.651918E-1,2.608051E-1,1E0,-1.5910712E-1,-2.1686529E-1,4.7905183E-1,-3.8834515E-1,7.219738E-1,-3.138869E-1,9.7843325E-1,9.914452E-1,-4.479829E-1,7.4863553E-1,-4.059668E-1,1.1388895E-1,2.507195E-1,-3.7186533E-2,1.6960461E-1,-2.7982332E-2,-1.07933156E-1,9.946658E-2,-3.9989553E-2,3E-1,1.4734791E-1,2.0737028E-1,-4.944151E-2,2.3775242E-1,1.8221777E-2,1.4848202E-1,-4.6013206E-2,-1.5034299E-1,1.5820101E-1,-9.979946E-2,1.039984E-1,1.05930164E-1,-7.0152946E-2,-1.0735491E-1,8.528452E-3,2.5009552E-1,7.447807E-2,4.2057405E-3,2.649563E-1,-9.1732614E-2,1.2795778E-1,3E-1,-7.507227E-2,3E-1,2.43414E-1,2.1899317E-1,-1.7519929E-1,1.7866905E-1,-1.8425527E-1,1.3397452E-2,3E-1,5.7660617E-2,-1.6890799E-1,2.676618E-1,-1.2680891E-1,-1.5040225E-1,1.4560682E-1,1.3326518E-2,3E-1,-1.456249E-1,2.1012366E-2,3E-1,4.299216E-2,3E-1,4.075656E-2,-1.7496127E-1,2.395553E-2,9.749314E-3,3E-1,-1.866382E-1,2.2221251E-1],"categories":[],"categories_nodes":[],"categories_segments":[],"categories_sizes":[],"default_left":[0,0,0,0,0,0,0,0,0,0,0,0,0,0,0,0,0,0,0,0,0,0,0,0,0,0,0,0,0,0,0,0,0,0,0,0,0,0,0,0,0,0,0,0,0,0,0,0,0,0,0,0,0,0,0,0,0,0,0,0,0,0,0,0,0,0,0,0,0,0,0,0,0,0,0,0,0,0,0,0,0,0,0,0,0,0,0,0,0,0,0,0,0,0,0,0,0,0,0,0,0,0,0,0,0,0,0,0,0,0,0,0,0,0,0,0,0,0,0,0,0,0,0],"id":5,"left_children":[1,3,5,7,9,11,13,15,17,19,21,23,25,27,29,31,33,35,37,39,41,43,45,47,49,51,53,55,57,59,61,63,65,67,69,71,73,75,77,79,81,83,85,87,89,91,93,95,97,99,-1,101,-1,103,105,107,109,111,113,115,117,119,121,-1,-1,-1,-1,-1,-1,-1,-1,-1,-1,-1,-1,-1,-1,-1,-1,-1,-1,-1,-1,-1,-1,-1,-1,-1,-1,-1,-1,-1,-1,-1,-1,-1,-1,-1,-1,-1,-1,-1,-1,-1,-1,-1,-1,-1,-1,-1,-1,-1,-1,-1,-1,-1,-1,-1,-1,-1,-1,-1,-1],"loss_changes":[2.5566855E3,2.0498403E3,5.8804688E1,1.0962681E3,2.0965303E2,3.0292969E1,2.3178078E1,7.541355E2,8.976953E1,4.888263E1,9.189771E1,7.2109375E0,2.4927185E1,6.3846717E0,9.486385E0,6.906057E2,4.924963E1,2.41875E1,2.421711E1,1.795102E1,2.999424E1,2.6180084E1,2.1022991E1,6.354492E0,3.482122E0,7.951599E0,6.396814E0,4.392715E0,4.2730055E0,1.123661E1,7.637276E0,5.0746826E2,1.5593188E2,2.3499794E1,2.115586E1,1.8984863E1,1.2272945E1,2.2546852E1,8.978113E0,6.545105E0,1.3959885E1,1.7586592E1,1.6105824E1,2.434311E1,1.2466933E1,1.1471945E1,5.086876E0,3.4785156E0,6.212215E0,2.7345579E0,0E0,5.7660446E0,0E0,5.7601304E0,7.7322283E0,4.6077604E0,7.495346E-1,3.1718317E-1,1.2984867E0,4.8057556E0,5.03096E-1,3.230842E0,3.770951E0,0E0,0E0,0E0,0E0,0E0,0E0,0E0,0E0,0E0,0E0,0E0,0E0,0E0,0E0,0E0,0E0,0E0,0E0,0E0,0E0,0E0,0E0,0E0,0E0,0E0,0E0,0E0,0E0,0E0,0E0,0E0,0E0,0E0,0E0,0E0,0E0,0E0,0E0,0E0,0E0,0E0,0E0,0E0,0E0,0E0,0E0,0E0,0E0,0E0,0E0,0E0,0E0,0E0,0E0,0E0,0E0,0E0,0E0,0E0,0E0],"parents":[2147483647,0,0,1,1,2,2,3,3,4,4,5,5,6,6,7,7,8,8,9,9,10,10,11,11,12,12,13,13,14,14,15,15,16,16,17,17,18,18,19,19,20,20,21,21,22,22,23,23,24,24,25,25,26,26,27,27,28,28,29,29,30,30,31,31,32,32,33,33,34,34,35,35,36,36,37,37,38,38,39,39,40,40,41,41,42,42,43,43,44,44,45,45,46,46,47,47,48,48,49,49,51,51,53,53,54,54,55,55,56,56,57,57,58,58,59,59,60,60,61,61,62,62],"right_children":[2,4,6,8,10,12,14,16,18,20,22,24,26,28,30,32,34,36,38,40,42,44,46,48,50,52,54,56,58,60,62,64,66,68,70,72,74,76,78,80,82,84,86,88,90,92,94,96,98,100,-1,102,-1,104,106,108,110,112,114,116,118,120,122,-1,-1,-1,-1,-1,-1,-1,-1,-1,-1,-1,-1,-1,-1,-1,-1,-1,-1,-1,-1,-1,-1,-1,-1,-1,-1,-1,-1,-1,-1,-1,-1,-1,-1,-1,-1,-1,-1,-1,-1,-1,-1,-1,-1,-1,-1,-1,-1,-1,-1,-1,-1,-1,-1,-1,-1,-1,-1,-1,-1],"split_conditions":[3.1136908E-2,2E0,4E0,2.7321614E-2,9E0,2.3736249E-1,3E0,8.96934E-2,1.01446696E-1,1.1E1,4E0,4.819208E-1,8.6061716E-2,2.5183843E-2,1.7844678E-1,1.3949914E-1,2E0,3.3413038E-1,2.5529772E-1,4E0,-6.856E-1,4.2916212E-2,3.3E1,5.0365865E-1,4.1056523E0,1.3E1,4.9112003E-2,9.881166E-2,1E0,1.77E-1,6.2683776E-2,7E0,4.283341E-2,2.6537394E-2,1.9959575E-1,2.658774E-1,8.456513E-2,1.629983E-1,1.0034692E-1,3.1954002E-1,1.3688515E-1,4E0,5.425145E-2,1.2417012E-1,2E0,1.042778E-1,4.1063063E-2,3E0,8.253083E-2,6.2979617E0,2.608051E-1,1E0,-1.5910712E-1,1E0,2.059855E-1,1.0773145E-1,2.5075372E-2,1.1E1,5E0,5.9026387E-2,7.9798155E-2,3.4E1,1.0669816E-1,1.1388895E-1,2.507195E-1,-3.7186533E-2,1.6960461E-1,-2.7982332E-2,-1.07933156E-1,9.946658E-2,-3.9989553E-2,3E-1,1.4734791E-1,2.0737028E-1,-4.944151E-2,2.3775242E-1,1.8221777E-2,1.4848202E-1,-4.6013206E-2,-1.5034299E-1,1.5820101E-1,-9.979946E-2,1.039984E-1,1.05930164E-1,-7.0152946E-2,-1.0735491E-1,8.528452E-3,2.5009552E-1,7.447807E-2,4.2057405E-3,2.649563E-1,-9.1732614E-2,1.2795778E-1,3E-1,-7.507227E-2,3E-1,2.43414E-1,2.1899317E-1,-1.7519929E-1,1.7866905E-1,-1.8425527E-1,1.3397452E-2,3E-1,5.7660617E-2,-1.6890799E-1,2.676618E-1,-1.2680891E-1,-1.5040225E-1,1.4560682E-1,1.3326518E-2,3E-1,-1.456249E-1,2.1012366E-2,3E-1,4.299216E-2,3E-1,4.075656E-2,-1.7496127E-1,2.395553E-2,9.749314E-3,3E-1,-1.866382E-1,2.2221251E-1],"split_indices":[231,22,22,143,67,289,54,289,289,12,22,306,107,164,176,176,54,176,289,62,20,289,67,176,0,62,143,216,56,19,214,38,194,107,289,306,255,176,107,299,258,22,194,176,46,194,198,22,225,7,0,54,0,29,107,337,160,48,22,262,181,59,124,0,0,0,0,0,0,0,0,0,0,0,0,0,0,0,0,0,0,0,0,0,0,0,0,0,0,0,0,0,0,0,0,0,0,0,0,0,0,0,0,0,0,0,0,0,0,0,0,0,0,0,0,0,0,0,0,0,0,0,0],"split_type":[0,0,0,0,0,0,0,0,0,0,0,0,0,0,0,0,0,0,0,0,0,0,0,0,0,0,0,0,0,0,0,0,0,0,0,0,0,0,0,0,0,0,0,0,0,0,0,0,0,0,0,0,0,0,0,0,0,0,0,0,0,0,0,0,0,0,0,0,0,0,0,0,0,0,0,0,0,0,0,0,0,0,0,0,0,0,0,0,0,0,0,0,0,0,0,0,0,0,0,0,0,0,0,0,0,0,0,0,0,0,0,0,0,0,0,0,0,0,0,0,0,0,0],"sum_hessian":[2.698548E4,2.1223723E4,5.761757E3,1.7490139E4,3.7335845E3,5.620102E3,1.4165474E2,1.400663E4,3.4835083E3,2.9466543E3,7.869302E2,5.506691E3,1.1341104E2,5.5914467E1,8.574028E1,1.2251452E4,1.7551777E3,3.1162415E3,3.672668E2,2.1416953E3,8.0495905E2,4.7476575E2,3.1216443E2,5.4966562E3,1.003464E1,5.575532E1,5.765572E1,4.6170364E1,9.744103E0,6.433337E1,2.1406912E1,1.02318955E4,2.0195569E3,1.3435396E3,4.1163818E2,3.0377578E3,7.848362E1,2.733491E2,9.391775E1,1.3650006E3,7.766947E2,2.3206108E2,5.7289795E2,3.3914E2,1.3562572E2,2.9656317E2,1.5601252E1,5.4822764E3,1.4380239E1,6.8854723E0,3.149168E0,5.286625E1,2.8890746E0,3.891373E1,1.8741987E1,4.320821E1,2.9621542E0,3.300115E0,6.4439883E0,5.8937164E1,5.396206E0,9.052371E0,1.2354541E1,4.0217534E3,6.2101416E3,1.6083059E3,4.1125107E2,5.923696E2,7.5117E2,2.530744E2,1.5856377E2,2.961572E3,7.618573E1,5.5076843E1,2.3406775E1,2.211833E2,5.2165768E1,3.1138937E1,6.2778812E1,1.3595496E3,5.4511056E0,7.459487E2,3.0746E1,1.5761406E2,7.444702E1,4.2896387E2,1.4393411E2,2.3614351E2,1.0299652E2,1.17418E2,1.8207718E1,2.742321E2,2.2331081E1,1.2617022E1,2.98423E0,5.3574014E3,1.248747E2,9.890655E0,4.489584E0,1.7825257E0,5.1029463E0,6.4133983E0,4.645285E1,1.8040083E1,2.0873648E1,1.2860343E1,5.881645E0,3.863742E1,4.570786E0,1.2513816E0,1.7107725E0,2.098304E0,1.2018112E0,4.3074865E0,2.1365018E0,5.215656E1,6.7806053E0,4.212216E0,1.18399E0,4.198372E0,4.853999E0,1.0779871E1,1.5746702E0],"tree_param":{"num_deleted":"0","num_feature":"346","num_nodes":"123","size_leaf_vector":"1"}},{"base_weights":[-5.953316E-1,-6.033218E-1,-4.8335785E-1,-6.0681635E-1,-5.0223315E-1,-5.0209886E-1,3.2463753E-1,-6.0864687E-1,-4.4183782E-1,-5.194865E-1,1.7172067E-1,-5.336383E-1,-1.9367546E-1,6.443058E-1,-1.7104651E-1,-6.108783E-1,-5.11703E-1,-5.0015295E-1,9.3061104E-2,-5.323535E-1,9.351707E-2,4.51593E-1,-1.5795237E-1,-5.487815E-1,-1.511622E-1,-3.5612732E-1,2.3267768E-1,8.3136916E-1,-1.4742604E-1,-6.1335415E-1,-5.587344E-1,-5.3116566E-1,1.6314559E-1,-5.193802E-1,8.460354E-1,5.198191E-1,-1.6999757E-1,-5.4396516E-1,-5.847647E-2,8.481112E-1,-2.8773183E-1,-1.4746548E-1,8.0201536E-1,-5.6388664E-1,-2.932066E-1,-2.1531947E-1,3E-1,-4.026604E-1,3E-1,5.5317473E-1,-4.288866E-1,1E0,-2.4736303E-1,-1.8496706E-1,-1.7279258E-1,-1.6863127E-1,1.8221855E-1,-1.6402449E-1,-1.2002564E-2,2.0461355E-1,-1.2024867E-1,-1.6412213E-1,5.6219276E-2,3E-1,3.9797887E-2,2.6690856E-1,-1.524378E-1,-1.6533357E-1,3.947463E-2,-1.092535E-1,2.700385E-1,-1.07245125E-1,3E-1,-1.698749E-1,2.9906127E-1,3E-1,-1.3229357E-1,-1.699094E-1,1.3526604E-1,-1.2658417E-1,9.639179E-2,-8.094971E-2,3E-1,-1.5182513E-1,2.5063658E-2,-9.89414E-2,2.7980587E-1,-1.7416073E-1,1.7917016E-1,3E-1,-1.21490195E-1,-1.2875329E-1,4.139041E-2],"categories":[],"categories_nodes":[],"categories_segments":[],"categories_sizes":[],"default_left":[0,0,0,0,0,0,0,0,0,0,0,0,0,0,0,0,0,0,0,0,0,0,0,0,0,0,0,0,0,0,0,0,0,0,0,0,0,0,0,0,0,0,0,0,0,0,0,0,0,0,0,0,0,0,0,0,0,0,0,0,0,0,0,0,0,0,0,0,0,0,0,0,0,0,0,0,0,0,0,0,0,0,0,0,0,0,0,0,0,0,0,0,0],"id":6,"left_children":[1,3,5,7,9,11,13,15,17,19,21,23,25,27,-1,29,31,33,35,37,39,41,-1,43,45,47,49,51,-1,53,55,57,59,61,63,65,-1,67,69,71,73,-1,75,77,79,81,-1,83,-1,85,87,89,91,-1,-1,-1,-1,-1,-1,-1,-1,-1,-1,-1,-1,-1,-1,-1,-1,-1,-1,-1,-1,-1,-1,-1,-1,-1,-1,-1,-1,-1,-1,-1,-1,-1,-1,-1,-1,-1,-1,-1,-1],"loss_changes":[1.8769043E1,6.7192383E0,2.1726501E1,5.5322266E0,7.881607E0,1.3438629E1,9.774553E0,3.7978516E0,6.736805E0,5.205597E0,3.6534452E0,7.228821E0,9.136942E0,5.6563005E0,0E0,2.0541992E0,5.7822723E0,5.4492645E0,6.4680285E0,3.4918213E0,4.354817E0,4.6959925E0,0E0,4.5210876E0,4.046614E0,7.336418E0,8.012638E0,4.787327E0,0E0,1.765625E0,3.6927795E0,3.2057648E0,4.0545793E0,3.8497696E0,4.9786282E-1,5.712741E0,0E0,3.089676E0,5.1444836E0,3.1392136E0,4.228039E0,0E0,5.0628185E0,3.1348572E0,5.659805E0,3.7832446E0,0E0,4.723131E0,0E0,8.732136E0,2.2966683E0,4.359337E0,3.474315E-1,0E0,0E0,0E0,0E0,0E0,0E0,0E0,0E0,0E0,0E0,0E0,0E0,0E0,0E0,0E0,0E0,0E0,0E0,0E0,0E0,0E0,0E0,0E0,0E0,0E0,0E0,0E0,0E0,0E0,0E0,0E0,0E0,0E0,0E0,0E0,0E0,0E0,0E0,0E0,0E0],"parents":[2147483647,0,0,1,1,2,2,3,3,4,4,5,5,6,6,7,7,8,8,9,9,10,10,11,11,12,12,13,13,15,15,16,16,17,17,18,18,19,19,20,20,21,21,23,23,24,24,25,25,26,26,27,27,29,29,30,30,31,31,32,32,33,33,34,34,35,35,37,37,38,38,39,39,40,40,42,42,43,43,44,44,45,45,47,47,49,49,50,50,51,51,52,52],"right_children":[2,4,6,8,10,12,14,16,18,20,22,24,26,28,-1,30,32,34,36,38,40,42,-1,44,46,48,50,52,-1,54,56,58,60,62,64,66,-1,68,70,72,74,-1,76,78,80,82,-1,84,-1,86,88,90,92,-1,-1,-1,-1,-1,-1,-1,-1,-1,-1,-1,-1,-1,-1,-1,-1,-1,-1,-1,-1,-1,-1,-1,-1,-1,-1,-1,-1,-1,-1,-1,-1,-1,-1,-1,-1,-1,-1,-1,-1],"split_conditions":[1.120041E-1,1.2059426E-1,1.17623284E-1,1.8887489E-1,1.4753579E-1,4.5760326E-2,2.7321614E-2,1.69519E-1,1.4373992E-1,1.991459E-1,9.0154484E-2,1.514789E-1,4.6855245E-2,9.211873E-2,-1.7104651E-1,1.3172626E-1,6.700116E-2,1.9960256E-1,2.7321614E-2,7.51889E-2,3E0,6.82E-1,-1.5795237E-1,1.8790737E-1,1.749315E-1,1.6923995E-1,4.645236E-2,7.424557E-2,-1.4742604E-1,8.341868E0,4.7385716E-1,1.4504355E-1,1E0,6.333924E-2,1.8E1,1.27E-1,-1.6999757E-1,2.415745E-1,2.823834E-2,1E0,2.6852442E-2,-1.4746548E-1,3.1136908E-2,4.023056E-1,8.48E-1,1.3892657E-1,3E-1,2.123093E-1,3E-1,1.9E1,2.8408859E-2,2.9025072E-2,2.4445575E-2,-1.8496706E-1,-1.7279258E-1,-1.6863127E-1,1.8221855E-1,-1.6402449E-1,-1.2002564E-2,2.0461355E-1,-1.2024867E-1,-1.6412213E-1,5.6219276E-2,3E-1,3.9797887E-2,2.6690856E-1,-1.524378E-1,-1.6533357E-1,3.947463E-2,-1.092535E-1,2.700385E-1,-1.07245125E-1,3E-1,-1.698749E-1,2.9906127E-1,3E-1,-1.3229357E-1,-1.699094E-1,1.3526604E-1,-1.2658417E-1,9.639179E-2,-8.094971E-2,3E-1,-1.5182513E-1,2.5063658E-2,-9.89414E-2,2.7980587E-1,-1.7416073E-1,1.7917016E-1,3E-1,-1.21490195E-1,-1.2875329E-1,4.139041E-2],"split_indices":[196,324,304,304,145,340,143,340,141,330,119,324,295,239,0,330,174,295,143,174,76,18,0,295,211,174,306,345,0,1,279,195,79,335,10,19,0,167,295,63,340,0,231,344,18,190,0,340,0,27,139,128,198,0,0,0,0,0,0,0,0,0,0,0,0,0,0,0,0,0,0,0,0,0,0,0,0,0,0,0,0,0,0,0,0,0,0,0,0,0,0,0,0],"split_type":[0,0,0,0,0,0,0,0,0,0,0,0,0,0,0,0,0,0,0,0,0,0,0,0,0,0,0,0,0,0,0,0,0,0,0,0,0,0,0,0,0,0,0,0,0,0,0,0,0,0,0,0,0,0,0,0,0,0,0,0,0,0,0,0,0,0,0,0,0,0,0,0,0,0,0,0,0,0,0,0,0,0,0,0,0,0,0,0,0,0,0,0,0],"sum_hessian":[2.1303805E4,1.9880781E4,1.4230223E3,1.9211639E4,6.6914294E2,1.3911343E3,3.1888071E1,1.8998158E4,2.1348149E2,6.526639E2,1.647911E1,1.2614119E3,1.2972244E2,2.3700802E1,8.18727E0,1.8565516E4,4.3264188E2,1.9255403E2,2.0927454E1,6.393748E2,1.3289043E1,1.201596E1,4.463151E0,1.2129532E3,4.84586E1,9.405116E1,3.567128E1,2.0579222E1,3.1215806E0,1.7713688E4,8.518287E2,4.2072116E2,1.1920713E1,1.904481E2,2.1059337E0,1.2836116E1,8.091337E0,6.239383E2,1.5436521E1,4.0494776E0,9.239566E0,3.1459765E0,8.869984E0,1.1441259E3,6.8827324E1,4.6791344E1,1.6672533E0,9.208631E1,1.9648505E0,2.4140278E1,1.1531E1,1.7465267E1,3.1139538E0,1.6301458E4,1.4122286E3,8.498907E2,1.9380002E0,4.0767398E2,1.3047166E1,6.0994234E0,5.8212905E0,1.834846E2,6.9634924E0,1.0169634E0,1.0889704E0,9.538467E0,3.2976484E0,6.175889E2,6.3493557E0,1.2174221E1,3.2622995E0,1.3094169E0,2.7400608E0,8.052817E0,1.1867485E0,6.763818E0,2.1061654E0,1.1417797E3,2.346253E0,5.7164665E1,1.1662656E1,4.5742535E1,1.0488104E0,7.590028E1,1.6186024E1,7.2960687E0,1.684421E1,1.04246025E1,1.106398E0,1.5750212E1,1.7150557E0,2.038377E0,1.0755769E0],"tree_param":{"num_deleted":"0","num_feature":"346","num_nodes":"93","size_leaf_vector":"1"}},{"base_weights":[9.291258E-2,-1.2243969E-1,9.0233415E-1,2.4647322E-1,-3.1987545E-1,1E0,2.463313E-1,1.1287144E-1,7.6828235E-1,-4.4579804E-1,7.2698735E-2,1E0,1.9569702E-1,2.6989583E-2,6.9416237E-1,4.803237E-1,-3.153097E-2,8.801643E-1,2.7632535E-1,-4.7344425E-1,-2.1127868E-2,2.2329497E-1,-3.2285544E-1,1E0,4.8360315E-1,-2.1227035E-1,5.137262E-1,5.308644E-1,-1.4825097E-1,8.704786E-1,1.6815314E-1,5.771392E-1,-1.6409127E-1,-1.2614457E-1,4.1947317E-1,9.559171E-1,2.2029874E-1,3.6251804E-1,-1.9392401E-1,-5.0538546E-1,-1.9791724E-1,1.2683995E-1,-4.4985098E-1,3.3406505E-1,-3.4027258E-1,-1.3008021E-1,-4.6014932E-1,1E0,-1.9477662E-2,3.1705388E-1,9.4528836E-1,-3.1033817E-1,8.062059E-1,6.006011E-1,-3.153944E-1,6.202171E-1,-3.9542764E-1,-3.5745728E-1,1.7432605E-1,2.5842518E-1,9.76296E-1,5.486666E-1,-1.5206173E-1,1.8911776E-1,-1.5869415E-1,-6.5910906E-2,2.4463665E-1,-5.157676E-2,1.8153839E-1,8.4773615E-2,3E-1,2.9559138E-1,5.9793065E-3,2.1875863E-1,1.0911751E-2,1.2390221E-1,-1.4040874E-1,-1.0965137E-1,1.6206872E-1,-1.5529592E-1,-1.3806841E-2,-1.270298E-1,1.0462281E-3,-5.2330885E-2,9.553804E-2,-1.4904745E-1,1.4912766E-1,1.3555293E-1,-6.5363735E-2,-1.0968698E-1,2.8207305E-1,2.1124683E-1,-5.2390356E-2,-1.4631382E-1,1.7624864E-2,3E-1,1.35815805E-2,-7.849024E-2,2.8488368E-1,2.6859201E-2,1.9239175E-1,3E-1,2.1703908E-2,1.3273557E-1,-1.3742433E-1,3E-1,-1.0998351E-1,2.2791775E-1,2.1327099E-2,-1.790814E-1,2.5116432E-1,2.1800357E-1,-4.4857584E-2,-1.6727515E-1,1.3408174E-1,-1.2854324E-1,5.763879E-2,1.2668346E-1,-8.2538985E-2,-7.9225525E-2,1.9680555E-1,3E-1,1.8379298E-1,2.4126129E-1,-1.4368853E-1,3E-1,-7.52635E-2],"categories":[],"categories_nodes":[],"categories_segments":[],"categories_sizes":[],"default_left":[0,0,0,0,0,0,0,0,0,0,0,0,0,0,0,0,0,0,0,0,0,0,0,0,0,0,0,0,0,0,0,0,0,0,0,0,0,0,0,0,0,0,0,0,0,0,0,0,0,0,0,0,0,0,0,0,0,0,0,0,0,0,0,0,0,0,0,0,0,0,0,0,0,0,0,0,0,0,0,0,0,0,0,0,0,0,0,0,0,0,0,0,0,0,0,0,0,0,0,0,0,0,0,0,0,0,0,0,0,0,0,0,0,0,0,0,0,0,0,0,0,0,0,0,0,0,0],"id":7,"left_children":[1,3,5,7,9,11,13,15,17,19,21,23,25,27,29,31,33,35,37,39,41,43,45,47,49,51,53,55,57,59,61,63,65,67,69,71,73,75,77,79,81,83,85,87,89,91,93,95,97,99,101,103,105,107,109,111,113,115,117,119,121,123,125,-1,-1,-1,-1,-1,-1,-1,-1,-1,-1,-1,-1,-1,-1,-1,-1,-1,-1,-1,-1,-1,-1,-1,-1,-1,-1,-1,-1,-1,-1,-1,-1,-1,-1,-1,-1,-1,-1,-1,-1,-1,-1,-1,-1,-1,-1,-1,-1,-1,-1,-1,-1,-1,-1,-1,-1,-1,-1,-1,-1,-1,-1,-1,-1],"loss_changes":[4.2524585E3,1.403606E3,5.5311914E2,4.682664E2,6.205465E2,1.1043945E2,1.0426254E2,2.8388422E2,7.512366E1,1.11572266E2,1.817183E2,8.4913574E1,2.2459953E1,6.3092785E1,3.221962E1,9.426178E1,1.6397493E2,5.553058E1,1.0412653E1,7.84292E1,3.6974155E1,1.3802013E2,2.2205086E1,1.9160156E1,2.4473671E1,7.858115E0,7.183262E0,1.5504787E1,3.5847916E1,1.6660156E1,1.0909468E1,7.764114E1,1.0960768E1,1.0642911E2,6.0383278E1,2.7486328E1,1.08434305E1,9.250496E0,5.258336E0,4.5032837E1,4.2179035E1,2.5076605E1,6.898575E0,1.2014862E2,1.2139591E1,1.3180805E1,7.050186E0,1.8802246E1,4.8004627E0,1.7521025E1,9.173515E0,8.010575E0,2.7716212E0,7.3802586E0,3.7008939E0,1.3919937E1,2.5481942E0,1.265012E1,2.343961E1,8.452374E0,1.0242493E1,1.110422E1,6.744397E0,0E0,0E0,0E0,0E0,0E0,0E0,0E0,0E0,0E0,0E0,0E0,0E0,0E0,0E0,0E0,0E0,0E0,0E0,0E0,0E0,0E0,0E0,0E0,0E0,0E0,0E0,0E0,0E0,0E0,0E0,0E0,0E0,0E0,0E0,0E0,0E0,0E0,0E0,0E0,0E0,0E0,0E0,0E0,0E0,0E0,0E0,0E0,0E0,0E0,0E0,0E0,0E0,0E0,0E0,0E0,0E0,0E0,0E0,0E0,0E0,0E0,0E0,0E0,0E0],"parents":[2147483647,0,0,1,1,2,2,3,3,4,4,5,5,6,6,7,7,8,8,9,9,10,10,11,11,12,12,13,13,14,14,15,15,16,16,17,17,18,18,19,19,20,20,21,21,22,22,23,23,24,24,25,25,26,26,27,27,28,28,29,29,30,30,31,31,32,32,33,33,34,34,35,35,36,36,37,37,38,38,39,39,40,40,41,41,42,42,43,43,44,44,45,45,46,46,47,47,48,48,49,49,50,50,51,51,52,52,53,53,54,54,55,55,56,56,57,57,58,58,59,59,60,60,61,61,62,62],"right_children":[2,4,6,8,10,12,14,16,18,20,22,24,26,28,30,32,34,36,38,40,42,44,46,48,50,52,54,56,58,60,62,64,66,68,70,72,74,76,78,80,82,84,86,88,90,92,94,96,98,100,102,104,106,108,110,112,114,116,118,120,122,124,126,-1,-1,-1,-1,-1,-1,-1,-1,-1,-1,-1,-1,-1,-1,-1,-1,-1,-1,-1,-1,-1,-1,-1,-1,-1,-1,-1,-1,-1,-1,-1,-1,-1,-1,-1,-1,-1,-1,-1,-1,-1,-1,-1,-1,-1,-1,-1,-1,-1,-1,-1,-1,-1,-1,-1,-1,-1,-1,-1,-1,-1,-1,-1,-1],"split_conditions":[2E0,6E0,2E0,1.4440592E-1,9.702887E-2,2.9986337E-2,4E0,2E0,1E0,8.895827E-2,2E0,2.6537394E-2,5.9474893E-2,1E0,2.6537394E-2,1E0,1E0,8.990903E-2,9.650723E-2,1.20634235E-1,6.6356465E-2,4.3092947E-2,7.564151E0,2.7810285E-2,4E0,5E0,2.9085832E-2,5.331966E-2,9.115244E-2,-9.848E-1,2.6942308E1,3.1136908E-2,2.1955942E-1,1.7099606E-1,1.752044E-1,1.4482945E-1,6.1124845E0,1.6645667E-1,1.3213709E-1,2.0031478E-1,-5.719E-1,9.8E-2,1.1572214E-1,4.413572E-2,2.2699516E-1,5.2253966E0,9.974811E-2,1.32E2,6.571246E-2,1.3373503E-1,6.8E1,1.4E1,1.2594901E-1,6.5824896E-2,9.74947E-2,1.0401435E-1,1.08455084E-1,9.7115025E-2,2.6537394E-2,6.3706316E-2,3.472332E-2,5E0,3E0,1.8911776E-1,-1.5869415E-1,-6.5910906E-2,2.4463665E-1,-5.157676E-2,1.8153839E-1,8.4773615E-2,3E-1,2.9559138E-1,5.9793065E-3,2.1875863E-1,1.0911751E-2,1.2390221E-1,-1.4040874E-1,-1.0965137E-1,1.6206872E-1,-1.5529592E-1,-1.3806841E-2,-1.270298E-1,1.0462281E-3,-5.2330885E-2,9.553804E-2,-1.4904745E-1,1.4912766E-1,1.3555293E-1,-6.5363735E-2,-1.0968698E-1,2.8207305E-1,2.1124683E-1,-5.2390356E-2,-1.4631382E-1,1.7624864E-2,3E-1,1.35815805E-2,-7.849024E-2,2.8488368E-1,2.6859201E-2,1.9239175E-1,3E-1,2.1703908E-2,1.3273557E-1,-1.3742433E-1,3E-1,-1.0998351E-1,2.2791775E-1,2.1327099E-2,-1.790814E-1,2.5116432E-1,2.1800357E-1,-4.4857584E-2,-1.6727515E-1,1.3408174E-1,-1.2854324E-1,5.763879E-2,1.2668346E-1,-8.2538985E-2,-7.9225525E-2,1.9680555E-1,3E-1,1.8379298E-1,2.4126129E-1,-1.4368853E-1,3E-1,-7.52635E-2],"split_indices":[22,12,35,176,176,191,22,12,35,99,35,107,176,61,107,35,81,194,194,290,107,231,5,304,22,22,230,191,176,20,6,231,99,99,290,107,7,231,225,223,20,19,274,107,249,5,99,44,182,176,10,44,217,194,264,107,306,274,107,176,194,40,76,0,0,0,0,0,0,0,0,0,0,0,0,0,0,0,0,0,0,0,0,0,0,0,0,0,0,0,0,0,0,0,0,0,0,0,0,0,0,0,0,0,0,0,0,0,0,0,0,0,0,0,0,0,0,0,0,0,0,0,0,0,0,0,0],"split_type":[0,0,0,0,0,0,0,0,0,0,0,0,0,0,0,0,0,0,0,0,0,0,0,0,0,0,0,0,0,0,0,0,0,0,0,0,0,0,0,0,0,0,0,0,0,0,0,0,0,0,0,0,0,0,0,0,0,0,0,0,0,0,0,0,0,0,0,0,0,0,0,0,0,0,0,0,0,0,0,0,0,0,0,0,0,0,0,0,0,0,0,0,0,0,0,0,0,0,0,0,0,0,0,0,0,0,0,0,0,0,0,0,0,0,0,0,0,0,0,0,0,0,0,0,0,0,0],"sum_hessian":[2.4394209E4,1.926853E4,5.125678E3,6.717148E3,1.2551382E4,4.065054E3,1.0606243E3,5.348864E3,1.368284E3,9.503039E3,3.0483428E3,3.8937869E3,1.7126724E2,7.126419E2,3.479823E2,1.508344E3,3.8405198E3,1.1141194E3,2.5416473E2,8.922093E3,5.80947E2,2.208104E3,8.4023865E2,3.5726082E3,3.2117856E2,7.5170784E1,9.609645E1,1.8336816E2,5.292738E2,2.6013217E2,8.785012E1,1.311423E3,1.9692099E2,3.1751445E3,6.653753E2,9.989867E2,1.1513267E2,2.149883E2,3.9176434E1,7.9944775E3,9.276149E2,4.324106E2,1.4853638E2,1.8457302E3,3.623739E2,3.5031146E2,4.899272E2,3.5542107E3,1.8397387E1,2.372715E2,8.390708E1,6.9202644E1,5.9681444E0,8.723194E1,8.864513E0,1.6753746E2,1.5830696E1,3.2098914E2,2.0828464E2,3.8852062E1,2.212801E2,3.9819233E1,4.803089E1,1.251596E3,5.9827045E1,1.8707585E2,9.845137E0,2.9888088E3,1.8633568E2,5.5459174E2,1.1078357E2,9.685249E2,3.046174E1,2.9777666E1,8.5355E1,2.0314194E2,1.1846352E1,3.2161938E1,7.014497E0,7.786409E3,2.0806804E2,4.370934E2,4.9052155E2,1.6814037E2,2.6427026E2,1.4196922E2,6.5671496E0,1.5212877E3,3.244425E2,3.5603976E2,6.334124E0,1.7010065E1,3.333014E2,4.652725E2,2.4654669E1,3.5334863E3,2.0724442E1,1.53033905E1,3.093995E0,1.4018306E2,9.708844E1,7.2789505E1,1.1117576E1,1.102624E1,5.8176403E1,4.80855E0,1.1595943E0,6.674073E1,2.0491209E1,7.511745E0,1.3527684E0,1.472303E2,2.0307165E1,1.355871E1,2.2719858E0,2.8445135E2,3.653779E1,1.3427138E2,7.4013245E1,1.6933777E1,2.1918287E1,1.4652045E2,7.475965E1,3.2063503E1,7.755732E0,2.49122E0,4.553967E1],"tree_param":{"num_deleted":"0","num_feature":"346","num_nodes":"127","size_leaf_vector":"1"}},{"base_weights":[-2.3712966E-1,-3.528344E-1,3.547523E-1,-2.0775028E-1,-4.6840626E-1,5.469478E-2,7.045291E-1,-7.3753044E-2,-3.7970582E-1,-4.20563E-1,-5.7048786E-1,2.830748E-1,-1.05720185E-1,7.855861E-1,2.5399017E-1,-1.8633121E-1,1.6268748E-1,-4.669353E-1,-2.3070233E-1,-4.407454E-1,-1.3369185E-1,-5.713954E-1,2.794616E-1,4.017458E-1,-1.5748633E-1,-1.6535057E-1,3.9783946E-1,6.168818E-1,8.734235E-1,6.162531E-2,6.7487144E-1,-2.1209377E-1,5.4030585E-1,7.1391985E-2,4.5562038E-1,-3.895325E-1,-5.672771E-1,-2.76396E-1,1.764262E-1,-3.3964986E-1,-4.9191266E-1,4.636078E-2,-4.6214053E-1,-5.807756E-1,-5.017255E-1,3E-1,-1.2450871E-1,3.279985E-1,8.661625E-1,-2.8854603E-1,5.7153755E-1,-2.4163716E-1,1.817307E-1,6.378309E-1,9.312266E-2,6.548447E-1,-7.902377E-2,9.2025524E-1,6.7402273E-1,2.2465332E-1,-2.6773486E-1,7.424346E-1,-2.9953152E-1,-8.192279E-2,2.1761186E-2,8.388145E-2,2.3286311E-1,3.011762E-3,1.6253074E-1,1.06517866E-1,2.9809117E-1,-1.2258244E-1,6.470699E-2,-1.7168817E-1,2.610675E-3,-1.0256434E-1,-8.121332E-3,8.250286E-3,3E-1,-1.1572052E-1,-2.3887971E-2,-1.5523584E-1,-1.1776928E-1,-3.3527296E-2,1.5408543E-1,-1.438897E-1,2.0882082E-1,-1.7444286E-1,-1.6839119E-2,-1.5338102E-1,1.19365774E-1,6.564248E-2,2.1356986E-1,2.7325198E-1,-1.5590873E-1,-8.97636E-3,-1.3548316E-1,2.3545323E-1,-7.700826E-2,-9.4399065E-2,-5.284282E-4,1.3716178E-1,-5.487522E-2,2.161599E-1,-1.1697025E-1,1.3587388E-1,-5.6647032E-2,1.7329223E-1,2.8173485E-1,-1.4644733E-1,1.6971117E-1,2.8219914E-1,1.0375704E-1,2.1811764E-1,-6.9465764E-2,1.13521166E-1,-1.23083025E-1,-1.0222683E-1,2.8078505E-1,2.4134585E-1,-3.8492847E-2,-1.8310198E-1,1.13548264E-1],"categories":[],"categories_nodes":[],"categories_segments":[],"categories_sizes":[],"default_left":[0,0,0,0,0,0,0,0,0,0,0,0,0,0,0,0,0,0,0,0,0,0,0,0,0,0,0,0,0,0,0,0,0,0,0,0,0,0,0,0,0,0,0,0,0,0,0,0,0,0,0,0,0,0,0,0,0,0,0,0,0,0,0,0,0,0,0,0,0,0,0,0,0,0,0,0,0,0,0,0,0,0,0,0,0,0,0,0,0,0,0,0,0,0,0,0,0,0,0,0,0,0,0,0,0,0,0,0,0,0,0,0,0,0,0,0,0,0,0,0,0,0,0],"id":8,"left_children":[1,3,5,7,9,11,13,15,17,19,21,23,25,27,29,31,33,35,37,39,41,43,45,47,49,51,53,55,57,59,61,63,65,67,69,71,73,75,77,79,81,83,85,87,89,-1,-1,91,93,95,97,99,101,103,105,107,109,111,113,115,117,119,121,-1,-1,-1,-1,-1,-1,-1,-1,-1,-1,-1,-1,-1,-1,-1,-1,-1,-1,-1,-1,-1,-1,-1,-1,-1,-1,-1,-1,-1,-1,-1,-1,-1,-1,-1,-1,-1,-1,-1,-1,-1,-1,-1,-1,-1,-1,-1,-1,-1,-1,-1,-1,-1,-1,-1,-1,-1,-1,-1,-1],"loss_changes":[1.4314161E3,2.930476E2,3.5869504E2,1.786235E2,4.7281982E1,6.747089E1,5.7434387E1,1.1605652E2,4.402542E1,3.832129E1,2.5527344E0,3.978711E1,3.2557236E1,1.9274475E1,1.956076E1,5.5402252E1,3.7583076E1,1.6405548E1,2.3410217E1,3.186731E1,2.5873985E1,1.7340698E0,2.8314397E0,2.0226242E1,1.5638633E1,2.567947E1,8.340364E0,1.2236008E1,7.568115E0,9.041623E0,5.2156754E0,4.9540375E1,6.0196037E0,3.0975142E1,1.7718674E1,1.4077194E1,2.6923523E0,1.8431313E1,1.8716862E1,2.4946106E1,1.0224304E1,2.0986292E1,3.4716225E0,9.6881104E-1,3.4242935E0,0E0,0E0,2.157452E1,5.5167236E0,5.8036594E0,4.62055E0,1.3911076E1,1.7665648E1,5.7277927E0,5.3379054E0,9.058197E0,6.8047585E0,7.966675E0,8.35762E0,1.1130791E1,5.2268133E0,3.9511185E0,1.4175823E0,0E0,0E0,0E0,0E0,0E0,0E0,0E0,0E0,0E0,0E0,0E0,0E0,0E0,0E0,0E0,0E0,0E0,0E0,0E0,0E0,0E0,0E0,0E0,0E0,0E0,0E0,0E0,0E0,0E0,0E0,0E0,0E0,0E0,0E0,0E0,0E0,0E0,0E0,0E0,0E0,0E0,0E0,0E0,0E0,0E0,0E0,0E0,0E0,0E0,0E0,0E0,0E0,0E0,0E0,0E0,0E0,0E0,0E0,0E0,0E0],"parents":[2147483647,0,0,1,1,2,2,3,3,4,4,5,5,6,6,7,7,8,8,9,9,10,10,11,11,12,12,13,13,14,14,15,15,16,16,17,17,18,18,19,19,20,20,21,21,22,22,23,23,24,24,25,25,26,26,27,27,28,28,29,29,30,30,31,31,32,32,33,33,34,34,35,35,36,36,37,37,38,38,39,39,40,40,41,41,42,42,43,43,44,44,47,47,48,48,49,49,50,50,51,51,52,52,53,53,54,54,55,55,56,56,57,57,58,58,59,59,60,60,61,61,62,62],"right_children":[2,4,6,8,10,12,14,16,18,20,22,24,26,28,30,32,34,36,38,40,42,44,46,48,50,52,54,56,58,60,62,64,66,68,70,72,74,76,78,80,82,84,86,88,90,-1,-1,92,94,96,98,100,102,104,106,108,110,112,114,116,118,120,122,-1,-1,-1,-1,-1,-1,-1,-1,-1,-1,-1,-1,-1,-1,-1,-1,-1,-1,-1,-1,-1,-1,-1,-1,-1,-1,-1,-1,-1,-1,-1,-1,-1,-1,-1,-1,-1,-1,-1,-1,-1,-1,-1,-1,-1,-1,-1,-1,-1,-1,-1,-1,-1,-1,-1,-1,-1,-1,-1,-1],"split_conditions":[9.5389135E-2,1E0,1.0401435E-1,1E0,3.1136908E-2,1E0,7.7908926E-2,1E0,1E0,4.826821E-2,6.065054E-1,2E0,4.826821E-2,1.9959575E-1,2.8567475E-1,8.972418E-2,1.2123946E-1,2E0,6E0,1E0,4.0660623E-2,1.1090733E-1,1E0,2.700575E-2,4.0181924E-2,3E0,2E0,3.849899E-2,1.09378316E-1,2.7E1,1.5573737E-1,1.4351659E-1,5E0,1.18143775E-1,2.321764E-2,2.700575E-2,1.5417992E-1,1.3600856E-1,1.01601824E-1,4.8060715E-2,1.20273836E-1,1.0313876E-1,2.2504312E-1,4.1958097E-1,2.930219E-1,3E-1,-1.2450871E-1,2E0,1.895359E-1,9.200858E-2,2.7383521E-2,2.6537394E-2,3E0,1.2048641E-1,6.694259E-2,1E0,4.364479E-2,1.9463266E-1,1.7006245E-1,1.007483E-1,2.3485655E-1,9.986545E-2,1.1E1,-8.192279E-2,2.1761186E-2,8.388145E-2,2.3286311E-1,3.011762E-3,1.6253074E-1,1.06517866E-1,2.9809117E-1,-1.2258244E-1,6.470699E-2,-1.7168817E-1,2.610675E-3,-1.0256434E-1,-8.121332E-3,8.250286E-3,3E-1,-1.1572052E-1,-2.3887971E-2,-1.5523584E-1,-1.1776928E-1,-3.3527296E-2,1.5408543E-1,-1.438897E-1,2.0882082E-1,-1.7444286E-1,-1.6839119E-2,-1.5338102E-1,1.19365774E-1,6.564248E-2,2.1356986E-1,2.7325198E-1,-1.5590873E-1,-8.97636E-3,-1.3548316E-1,2.3545323E-1,-7.700826E-2,-9.4399065E-2,-5.284282E-4,1.3716178E-1,-5.487522E-2,2.161599E-1,-1.1697025E-1,1.3587388E-1,-5.6647032E-2,1.7329223E-1,2.8173485E-1,-1.4644733E-1,1.6971117E-1,2.8219914E-1,1.0375704E-1,2.1811764E-1,-6.9465764E-2,1.13521166E-1,-1.23083025E-1,-1.0222683E-1,2.8078505E-1,2.4134585E-1,-3.8492847E-2,-1.8310198E-1,1.13548264E-1],"split_indices":[289,54,107,79,231,54,143,35,35,108,176,22,108,289,289,108,255,22,89,79,143,107,30,108,107,35,79,288,176,27,236,255,82,114,155,108,340,255,173,107,255,255,113,240,119,0,0,35,243,176,189,107,54,231,214,37,181,147,99,231,306,135,33,0,0,0,0,0,0,0,0,0,0,0,0,0,0,0,0,0,0,0,0,0,0,0,0,0,0,0,0,0,0,0,0,0,0,0,0,0,0,0,0,0,0,0,0,0,0,0,0,0,0,0,0,0,0,0,0,0,0,0,0],"split_type":[0,0,0,0,0,0,0,0,0,0,0,0,0,0,0,0,0,0,0,0,0,0,0,0,0,0,0,0,0,0,0,0,0,0,0,0,0,0,0,0,0,0,0,0,0,0,0,0,0,0,0,0,0,0,0,0,0,0,0,0,0,0,0,0,0,0,0,0,0,0,0,0,0,0,0,0,0,0,0,0,0,0,0,0,0,0,0,0,0,0,0,0,0,0,0,0,0,0,0,0,0,0,0,0,0,0,0,0,0,0,0,0,0,0,0,0,0,0,0,0,0,0,0],"sum_hessian":[2.0898777E4,1.7481742E4,3.4170356E3,7.7524434E3,9.729299E3,1.8398602E3,1.5771754E3,4.3579316E3,3.3945115E3,6.62802E3,3.101279E3,7.588021E2,1.0810581E3,1.3360597E3,2.4111563E2,2.9523972E3,1.4055348E3,2.1397358E3,1.2547758E3,6.191864E3,4.3615613E2,3.0982986E3,2.9806352E0,5.978511E2,1.6095107E2,9.671965E2,1.1386158E2,4.6020093E2,8.758588E2,1.6626857E2,7.484706E1,2.8519893E3,1.0040775E2,1.0725176E3,3.3301718E2,1.2106968E3,9.2903906E2,1.1284467E3,1.26329025E2,2.0833152E3,4.108549E3,2.822746E2,1.5388155E2,2.724183E3,3.7411545E2,1.0349889E0,1.9456463E0,5.17397E2,8.0454094E1,1.3693745E2,2.4013615E1,7.931666E2,1.7402989E2,6.3084087E1,5.0777493E1,4.3645074E2,2.3750195E1,7.06349E2,1.6950981E2,1.11430275E2,5.4838295E1,7.021645E1,4.6306076E0,2.3487996E3,5.0318973E2,4.873517E1,5.167258E1,9.4967035E2,1.22847176E2,2.8197342E2,5.1043777E1,1.1740184E3,3.667832E1,9.210233E2,8.0157385E0,8.934191E2,2.3502759E2,1.11165276E2,1.516375E1,1.7692574E3,3.140576E2,3.2649893E3,8.435595E2,2.1147345E2,7.080114E1,1.5216931E2,1.7122347E0,2.7204426E3,3.7405658E0,3.7061502E2,3.5004032E0,4.0404678E2,1.1335017E2,7.827347E1,2.1806254E0,5.341047E1,8.352698E1,1.9137297E1,4.87632E0,6.0781506E2,1.853515E2,9.899204E1,7.503786E1,5.8662407E1,4.4216795E0,2.2042618E1,2.8734877E1,3.45618E2,9.0832726E1,1.4678375E1,9.071818E0,6.8149744E2,2.4851555E1,1.6031775E2,9.192057E0,9.0032585E1,2.1397688E1,5.2377724E1,2.4605746E0,6.561654E1,4.599916E0,3.2435741E0,1.3870333E0],"tree_param":{"num_deleted":"0","num_feature":"346","num_nodes":"123","size_leaf_vector":"1"}},{"base_weights":[4.7101706E-1,3.377373E-1,9.37521E-1,4.805361E-1,-2.6881557E-2,9.782679E-1,5.863523E-1,2.8258678E-1,6.789402E-1,-2.209201E-1,2.5367022E-1,1E0,5.907185E-1,3.5526195E-1,8.140066E-1,3.7621164E-1,-7.941891E-2,7.455334E-1,2.1499595E-1,-3.016254E-2,-3.5601586E-1,4.9180698E-1,3.9407264E-2,1E0,7.713018E-1,4.0058017E-1,7.8245753E-1,6.240601E-1,7.879488E-2,8.7283313E-1,2.6522484E-1,2.8076306E-1,7.072839E-1,-1.3759427E-1,4.2245045E-1,5.767172E-1,8.5385317E-1,7.000256E-2,5.90215E-1,-1.2688932E-1,3.7584898E-1,-3.8021898E-1,2.534539E-1,3.5497794E-1,7.57407E-1,-3.8883377E-2,6.486317E-1,1E0,8.574656E-1,5.515906E-1,9.700044E-1,4.8570266E-1,-3.011175E-1,8.618089E-1,9.275784E-2,3.8563532E-1,8.374896E-1,-1.20388195E-1,3.9828467E-1,-4.17857E-1,8.925345E-1,5.627247E-1,-2.8784984E-1,1.7301917E-1,4.8522465E-2,2.2982745E-1,2.8362073E-2,-4.9050298E-2,2.366659E-1,5.2686904E-2,2.1791297E-1,1.9736162E-1,5.6906845E-2,2.6639932E-1,1.2302447E-1,8.3487645E-2,-3.2443978E-2,1.9836421E-1,-6.438605E-2,4.760111E-2,-7.09912E-2,1.4537093E-1,-3.1507704E-2,-1.1688238E-1,2.0660315E-1,1.9010656E-1,-1.0570597E-1,1.6993603E-1,5.2688517E-2,2.4146102E-1,1.1051918E-2,-2.6885865E-2,1.7363061E-1,2.5106254E-1,1.869685E-2,3E-1,-5.690701E-2,2.6194516E-1,-3.448205E-2,1.3687259E-1,3E-1,2.9602078E-1,-1.6472979E-1,1.6831036E-1,-6.293678E-2,-1.5183315E-1,1.779487E-1,2.6508546E-1,-1.6915542E-1,-6.51191E-2,2.0981264E-1,1.5245146E-2,2.2274809E-1,2.6774192E-1,-1.1409501E-1,-9.816734E-2,5.318444E-2,4.9349595E-2,2.875144E-1,2.3956085E-2,-1.7360014E-1,2.858447E-1,1.4463598E-1,3.0908538E-2,3E-1,-1.6754323E-1,1.822325E-1],"categories":[],"categories_nodes":[],"categories_segments":[],"categories_sizes":[],"default_left":[0,0,0,0,0,0,0,0,0,0,0,0,0,0,0,0,0,0,0,0,0,0,0,0,0,0,0,0,0,0,0,0,0,0,0,0,0,0,0,0,0,0,0,0,0,0,0,0,0,0,0,0,0,0,0,0,0,0,0,0,0,0,0,0,0,0,0,0,0,0,0,0,0,0,0,0,0,0,0,0,0,0,0,0,0,0,0,0,0,0,0,0,0,0,0,0,0,0,0,0,0,0,0,0,0,0,0,0,0,0,0,0,0,0,0,0,0,0,0,0,0,0,0,0,0,0,0],"id":9,"left_children":[1,3,5,7,9,11,13,15,17,19,21,23,25,27,29,31,33,35,37,39,41,43,45,47,49,51,53,55,57,59,61,63,65,67,69,71,73,75,77,79,81,83,85,87,89,91,93,95,97,99,101,103,105,107,109,111,113,115,117,119,121,123,125,-1,-1,-1,-1,-1,-1,-1,-1,-1,-1,-1,-1,-1,-1,-1,-1,-1,-1,-1,-1,-1,-1,-1,-1,-1,-1,-1,-1,-1,-1,-1,-1,-1,-1,-1,-1,-1,-1,-1,-1,-1,-1,-1,-1,-1,-1,-1,-1,-1,-1,-1,-1,-1,-1,-1,-1,-1,-1,-1,-1,-1,-1,-1,-1],"loss_changes":[1.7597612E3,1.1464958E3,8.942871E1,6.212258E2,3.3744458E2,5.4611816E1,3.424565E1,2.685318E2,2.4396143E2,9.441934E1,1.2929645E2,1.6004395E1,1.23691025E1,2.4291546E1,1.04189E1,1.987074E2,4.761017E1,1.2585254E2,5.399344E1,5.9751736E1,3.1737396E1,4.3350372E1,6.370819E1,6.3945312E0,1.3659271E1,1.070158E1,9.342186E0,8.120628E0,1.0396014E1,7.93869E0,5.6538196E0,1.7207568E2,5.066095E1,3.5178375E1,1.2582489E1,8.479364E1,6.3377197E1,2.665468E1,1.5952766E1,3.8538635E1,1.5356213E1,2.0976929E1,1.9233576E1,3.0016785E1,1.389711E1,3.7157425E1,1.673479E1,3.0981445E0,5.651642E0,6.5649643E0,4.847687E0,8.3947525E0,3.9181318E0,5.2950745E0,3.7009819E0,9.548173E0,6.144806E0,6.2722955E0,8.04967E0,4.5875198E-1,6.798828E0,5.107446E0,3.3280497E0,0E0,0E0,0E0,0E0,0E0,0E0,0E0,0E0,0E0,0E0,0E0,0E0,0E0,0E0,0E0,0E0,0E0,0E0,0E0,0E0,0E0,0E0,0E0,0E0,0E0,0E0,0E0,0E0,0E0,0E0,0E0,0E0,0E0,0E0,0E0,0E0,0E0,0E0,0E0,0E0,0E0,0E0,0E0,0E0,0E0,0E0,0E0,0E0,0E0,0E0,0E0,0E0,0E0,0E0,0E0,0E0,0E0,0E0,0E0,0E0,0E0,0E0,0E0,0E0],"parents":[2147483647,0,0,1,1,2,2,3,3,4,4,5,5,6,6,7,7,8,8,9,9,10,10,11,11,12,12,13,13,14,14,15,15,16,16,17,17,18,18,19,19,20,20,21,21,22,22,23,23,24,24,25,25,26,26,27,27,28,28,29,29,30,30,31,31,32,32,33,33,34,34,35,35,36,36,37,37,38,38,39,39,40,40,41,41,42,42,43,43,44,44,45,45,46,46,47,47,48,48,49,49,50,50,51,51,52,52,53,53,54,54,55,55,56,56,57,57,58,58,59,59,60,60,61,61,62,62],"right_children":[2,4,6,8,10,12,14,16,18,20,22,24,26,28,30,32,34,36,38,40,42,44,46,48,50,52,54,56,58,60,62,64,66,68,70,72,74,76,78,80,82,84,86,88,90,92,94,96,98,100,102,104,106,108,110,112,114,116,118,120,122,124,126,-1,-1,-1,-1,-1,-1,-1,-1,-1,-1,-1,-1,-1,-1,-1,-1,-1,-1,-1,-1,-1,-1,-1,-1,-1,-1,-1,-1,-1,-1,-1,-1,-1,-1,-1,-1,-1,-1,-1,-1,-1,-1,-1,-1,-1,-1,-1,-1,-1,-1,-1,-1,-1,-1,-1,-1,-1,-1,-1,-1,-1,-1,-1,-1],"split_conditions":[3.1136908E-2,1E0,2E0,1E0,1.2E1,1.14722185E-1,2.382763E-2,1.2455824E-1,6.6339485E-2,2E0,6.1735984E-2,1.9467416E-1,4.562007E-2,6.958327E-2,5E0,5.278176E-2,1E0,9E0,5.3592306E-2,3.845623E-2,1E1,2.7321614E-2,2.8278828E-2,1.8775213E-1,3.9750095E-2,6.0125843E-2,2.080997E-1,2.9986337E-2,4E0,3E0,4.036519E-2,-7.059E-1,1.0316844E-1,6.292917E-2,1.75E-1,9.873794E-2,1.9468677E-1,2.6537394E-2,3.3666688E-1,-8.183E-1,1.7311305E-1,1.18304074E-1,5.479467E-2,-8.778E-1,5E0,4.8794E-2,3E0,3.7261978E-1,3.9979485E-1,7.136124E0,1.6768238E-1,8.380691E-2,7.9523705E-2,7.81091E-2,4.967048E-2,1.9E1,1.16323106E-1,9.114563E-2,2.6267927E-2,9E0,1.9467416E-1,1.3E1,8.014926E-2,1.7301917E-1,4.8522465E-2,2.2982745E-1,2.8362073E-2,-4.9050298E-2,2.366659E-1,5.2686904E-2,2.1791297E-1,1.9736162E-1,5.6906845E-2,2.6639932E-1,1.2302447E-1,8.3487645E-2,-3.2443978E-2,1.9836421E-1,-6.438605E-2,4.760111E-2,-7.09912E-2,1.4537093E-1,-3.1507704E-2,-1.1688238E-1,2.0660315E-1,1.9010656E-1,-1.0570597E-1,1.6993603E-1,5.2688517E-2,2.4146102E-1,1.1051918E-2,-2.6885865E-2,1.7363061E-1,2.5106254E-1,1.869685E-2,3E-1,-5.690701E-2,2.6194516E-1,-3.448205E-2,1.3687259E-1,3E-1,2.9602078E-1,-1.6472979E-1,1.6831036E-1,-6.293678E-2,-1.5183315E-1,1.779487E-1,2.6508546E-1,-1.6915542E-1,-6.51191E-2,2.0981264E-1,1.5245146E-2,2.2274809E-1,2.6774192E-1,-1.1409501E-1,-9.816734E-2,5.318444E-2,4.9349595E-2,2.875144E-1,2.3956085E-2,-1.7360014E-1,2.858447E-1,1.4463598E-1,3.0908538E-2,3E-1,-1.6754323E-1,1.822325E-1],"split_indices":[231,22,22,54,12,289,194,255,289,22,176,176,191,176,22,194,46,12,143,194,62,143,301,255,194,185,107,191,54,83,163,20,289,310,17,176,255,107,289,20,176,309,290,20,22,310,22,99,306,1,232,108,203,174,238,45,139,191,272,43,176,39,134,0,0,0,0,0,0,0,0,0,0,0,0,0,0,0,0,0,0,0,0,0,0,0,0,0,0,0,0,0,0,0,0,0,0,0,0,0,0,0,0,0,0,0,0,0,0,0,0,0,0,0,0,0,0,0,0,0,0,0,0,0,0,0,0],"split_type":[0,0,0,0,0,0,0,0,0,0,0,0,0,0,0,0,0,0,0,0,0,0,0,0,0,0,0,0,0,0,0,0,0,0,0,0,0,0,0,0,0,0,0,0,0,0,0,0,0,0,0,0,0,0,0,0,0,0,0,0,0,0,0,0,0,0,0,0,0,0,0,0,0,0,0,0,0,0,0,0,0,0,0,0,0,0,0,0,0,0,0,0,0,0,0,0,0,0,0,0,0,0,0,0,0,0,0,0,0,0,0,0,0,0,0,0,0,0,0,0,0,0,0,0,0,0,0],"sum_hessian":[2.8307215E4,2.2018322E4,6.288892E3,1.582164E4,6.196682E3,5.633445E3,6.554472E2,7.9211104E3,7.90053E3,3.6632644E3,2.5334177E3,5.286568E3,3.4687704E2,3.265396E2,3.2890756E2,6.2934165E3,1.6276938E3,6.9083223E3,9.9220764E2,1.5192627E3,2.1440017E3,1.1992493E3,1.3341686E3,4.962436E3,3.2413193E2,1.7571657E2,1.7116046E2,1.6492867E2,1.6161095E2,2.9653058E2,3.2377E1,4.8864844E3,1.406932E3,1.4592655E3,1.6842833E2,2.702619E3,4.205703E3,7.165158E2,2.7569183E2,1.227512E3,2.9175076E2,2.0624736E3,8.152828E1,7.930372E2,4.0621207E2,1.18307E3,1.5109862E2,4.599467E3,3.6296915E2,1.5572182E2,1.6841011E2,1.5698111E2,1.8735458E1,1.5327617E2,1.7884287E1,7.922845E1,8.570022E1,9.993226E1,6.1678696E1,4.1544147E0,2.9237616E2,2.1041365E1,1.1335635E1,1.400372E3,3.4861123E3,1.283499E3,1.2343296E2,1.420372E3,3.8893623E1,9.3815674E1,7.461266E1,2.2335679E3,4.690509E2,3.904299E3,3.014042E2,3.300563E2,3.864595E2,2.5350702E2,2.218481E1,3.4066647E2,8.8684546E2,2.3794597E2,5.3804787E1,2.0451449E3,1.7328573E1,5.0061302E1,3.146698E1,3.629342E2,4.3010297E2,3.8099905E2,2.5213017E1,1.0940552E3,8.901475E1,1.1405284E2,3.7045776E1,4.5975713E3,1.8953626E0,3.5730786E2,5.6612883E0,1.3116354E2,2.4558271E1,1.6692206E2,1.4880438E0,1.4181395E2,1.51671715E1,1.5594774E1,3.1406834E0,1.5134122E2,1.9349542E0,1.2263201E1,5.6210856E0,4.146592E1,3.7762527E1,8.225365E1,3.4465704E0,5.8903664E1,4.102859E1,4.442801E1,1.7250687E1,1.1374409E0,3.0169737E0,2.5377972E2,3.8596436E1,1.1829366E1,9.211998E0,8.993345E0,2.3422904E0],"tree_param":{"num_deleted":"0","num_feature":"346","num_nodes":"127","size_leaf_vector":"1"}},{"base_weights":[-5.609705E-1,-5.699612E-1,-4.377582E-1,-5.8135235E-1,-5.299532E-1,-4.5743117E-1,3.0362734E-1,-5.826205E-1,-3.764147E-1,-5.397689E-1,-2.570755E-1,-4.8782042E-1,-1.0798057E-1,5.600582E-1,-1.6132315E-1,-5.839066E-1,-4.456291E-1,-5.010662E-1,4.051351E-2,-5.4472536E-1,-9.359163E-3,-3.585978E-1,6.4036924E-1,-5.046046E-1,-1.1221808E-1,-1.9192094E-1,8.1056184E-1,7.021917E-1,-1.3658248E-1,-5.8433914E-1,-2.4693471E-1,-4.9810576E-1,4.5444537E-2,2.169997E-2,-5.71455E-1,-4.042565E-1,6.535649E-1,-5.46543E-1,5.224289E-1,-1.7026295E-1,3.6058387E-1,-4.1147408E-1,3.4825808E-1,9.271855E-1,-1.3161857E-1,-5.225746E-1,-2.1741696E-1,-2.749034E-1,4.513347E-1,-2.9929912E-1,3.453383E-1,1E0,-1.0753372E-1,8.8607264E-1,-1.3692194E-1,-1.7583376E-1,-1.5299106E-1,1.2282628E-1,-1.6722775E-1,-1.5660109E-1,1.2549898E-1,3E-1,-1.3088945E-1,1.2852755E-1,-1.4356746E-1,-1.7622072E-1,4.497437E-2,-1.6738142E-1,1.5788594E-1,3E-1,-1.2596647E-1,-1.5334499E-1,-1.7677027E-1,1.9423354E-2,3E-1,1.8266365E-1,-1.0795427E-1,-1.3877918E-1,6.772772E-2,2.4656051E-1,-1.3665856E-1,3E-1,-1.15219444E-1,-1.6196042E-1,-7.790336E-2,-1.0005089E-1,1.5167175E-1,6.841303E-2,-1.4724593E-1,2.2384477E-1,-1.366812E-1,-1.0530859E-1,2.3548353E-1,-1.16377994E-1,2.5553292E-1,3E-1,5.5934796E-3,3E-1,-1.1161626E-1,-1.4438091E-1,1.5533468E-1],"categories":[],"categories_nodes":[],"categories_segments":[],"categories_sizes":[],"default_left":[0,0,0,0,0,0,0,0,0,0,0,0,0,0,0,0,0,0,0,0,0,0,0,0,0,0,0,0,0,0,0,0,0,0,0,0,0,0,0,0,0,0,0,0,0,0,0,0,0,0,0,0,0,0,0,0,0,0,0,0,0,0,0,0,0,0,0,0,0,0,0,0,0,0,0,0,0,0,0,0,0,0,0,0,0,0,0,0,0,0,0,0,0,0,0,0,0,0,0,0,0],"id":10,"left_children":[1,3,5,7,9,11,13,15,17,19,21,23,25,27,-1,29,31,33,35,37,39,41,43,45,47,49,51,53,-1,55,57,59,61,63,65,67,69,71,73,-1,75,77,79,81,-1,83,85,87,89,91,93,95,-1,97,99,-1,-1,-1,-1,-1,-1,-1,-1,-1,-1,-1,-1,-1,-1,-1,-1,-1,-1,-1,-1,-1,-1,-1,-1,-1,-1,-1,-1,-1,-1,-1,-1,-1,-1,-1,-1,-1,-1,-1,-1,-1,-1,-1,-1,-1,-1],"loss_changes":[1.9997559E1,7.453125E0,1.8331192E1,3.2236328E0,1.0001465E1,1.285495E1,7.38723E0,2.059082E0,4.400942E0,9.599731E0,1.2380216E1,6.991028E0,7.7523484E0,4.0229635E0,0E0,1.7563477E0,3.2863503E0,2.4028988E0,5.806363E0,7.3063965E0,7.399315E0,4.6451797E0,4.7126036E0,5.4075317E0,4.626123E0,5.358137E0,3.2021732E0,3.655281E0,0E0,1.418457E0,3.9874783E0,2.7261143E0,6.717384E0,1.9696374E0,7.471409E-1,2.0665605E0,4.2427034E0,5.159424E0,2.1731174E0,0E0,4.076742E0,3.7701702E0,3.7718387E0,4.170044E0,0E0,4.434021E0,5.599848E0,4.317415E0,3.3823519E0,4.563413E0,6.1371717E0,1.3234167E0,0E0,3.2023897E0,1.3725964E0,0E0,0E0,0E0,0E0,0E0,0E0,0E0,0E0,0E0,0E0,0E0,0E0,0E0,0E0,0E0,0E0,0E0,0E0,0E0,0E0,0E0,0E0,0E0,0E0,0E0,0E0,0E0,0E0,0E0,0E0,0E0,0E0,0E0,0E0,0E0,0E0,0E0,0E0,0E0,0E0,0E0,0E0,0E0,0E0,0E0,0E0],"parents":[2147483647,0,0,1,1,2,2,3,3,4,4,5,5,6,6,7,7,8,8,9,9,10,10,11,11,12,12,13,13,15,15,16,16,17,17,18,18,19,19,20,20,21,21,22,22,23,23,24,24,25,25,26,26,27,27,29,29,30,30,31,31,32,32,33,33,34,34,35,35,36,36,37,37,38,38,40,40,41,41,42,42,43,43,45,45,46,46,47,47,48,48,49,49,50,50,51,51,53,53,54,54],"right_children":[2,4,6,8,10,12,14,16,18,20,22,24,26,28,-1,30,32,34,36,38,40,42,44,46,48,50,52,54,-1,56,58,60,62,64,66,68,70,72,74,-1,76,78,80,82,-1,84,86,88,90,92,94,96,-1,98,100,-1,-1,-1,-1,-1,-1,-1,-1,-1,-1,-1,-1,-1,-1,-1,-1,-1,-1,-1,-1,-1,-1,-1,-1,-1,-1,-1,-1,-1,-1,-1,-1,-1,-1,-1,-1,-1,-1,-1,-1,-1,-1,-1,-1,-1,-1],"split_conditions":[1.120041E-1,1E0,1.17623284E-1,2.5501645E-1,1.3782786E-1,7.833962E-2,2.7321614E-2,1.7282294E-1,3E0,1.655688E-1,1.1815269E-1,1.514789E-1,1.6680355E-1,9.211873E-2,-1.6132315E-1,7.1474487E-1,3E0,2E0,7.83E-1,3.4131998E-1,7.4624275E1,1.2389776E-1,7.102095E-2,1.8790737E-1,6.333915E-2,4.4708367E-2,6.269421E-2,1.502826E-1,-1.3658248E-1,1.69519E-1,2.1E-2,1.9227475E-1,1.2E1,1E1,4.479178E-2,9.5238216E-2,2.9025072E-2,2.7649466E-2,2.3310393E-2,-1.7026295E-1,4.7337625E-2,1.5874763E-1,2.4129584E-2,6.539136E-2,-1.3161857E-1,9.5506676E-2,1.7E1,1.2E1,6.056994E-2,1.3936597E-1,1E1,2.6537394E-2,-1.0753372E-1,2.7542388E-2,2.2780513E-2,-1.7583376E-1,-1.5299106E-1,1.2282628E-1,-1.6722775E-1,-1.5660109E-1,1.2549898E-1,3E-1,-1.3088945E-1,1.2852755E-1,-1.4356746E-1,-1.7622072E-1,4.497437E-2,-1.6738142E-1,1.5788594E-1,3E-1,-1.2596647E-1,-1.5334499E-1,-1.7677027E-1,1.9423354E-2,3E-1,1.8266365E-1,-1.0795427E-1,-1.3877918E-1,6.772772E-2,2.4656051E-1,-1.3665856E-1,3E-1,-1.15219444E-1,-1.6196042E-1,-7.790336E-2,-1.0005089E-1,1.5167175E-1,6.841303E-2,-1.4724593E-1,2.2384477E-1,-1.366812E-1,-1.0530859E-1,2.3548353E-1,-1.16377994E-1,2.5553292E-1,3E-1,5.5934796E-3,3E-1,-1.1161626E-1,-1.4438091E-1,1.5533468E-1],"split_indices":[196,28,304,304,340,340,143,174,40,304,330,324,330,239,0,103,64,54,18,260,3,167,277,295,134,90,176,305,0,340,17,197,13,43,236,326,128,306,235,0,291,166,296,181,0,287,82,82,306,174,83,107,0,323,238,0,0,0,0,0,0,0,0,0,0,0,0,0,0,0,0,0,0,0,0,0,0,0,0,0,0,0,0,0,0,0,0,0,0,0,0,0,0,0,0,0,0,0,0,0,0],"split_type":[0,0,0,0,0,0,0,0,0,0,0,0,0,0,0,0,0,0,0,0,0,0,0,0,0,0,0,0,0,0,0,0,0,0,0,0,0,0,0,0,0,0,0,0,0,0,0,0,0,0,0,0,0,0,0,0,0,0,0,0,0,0,0,0,0,0,0,0,0,0,0,0,0,0,0,0,0,0,0,0,0,0,0,0,0,0,0,0,0,0,0,0,0,0,0,0,0,0,0,0,0],"sum_hessian":[1.827656E4,1.7030252E4,1.2463079E3,1.324544E4,3.7848125E3,1.2144645E3,3.1843319E1,1.3162149E4,8.329053E1,3.6524517E3,1.3236069E2,1.1169365E3,9.752802E1,2.4661427E1,7.1818933E0,1.3036501E4,1.2564817E2,6.3964787E1,1.9325737E1,3.61861E3,3.3841637E1,1.1944863E2,1.2912054E1,1.0688313E3,4.8105183E1,9.0086586E1,7.4414406E0,2.1903616E1,2.7578108E0,1.3019055E4,1.7446482E1,1.13504616E2,1.2143554E1,7.6726894E0,5.6292095E1,1.1397449E1,7.928289E0,3.6129443E3,5.6659026E0,1.3276068E1,2.0565567E1,1.11523964E2,7.9246607E0,1.0311982E1,2.6000721E0,1.00511896E3,6.3712337E1,3.772655E1,1.0378632E1,7.544987E1,1.4636715E1,6.000143E0,1.4412975E0,1.7920588E1,3.9830282E0,1.2709122E4,3.0993304E2,5.500404E0,1.1946078E1,1.11039444E2,2.4651704E0,3.5972948E0,8.546259E0,4.311169E0,3.3615203E0,5.525626E1,1.0358388E0,1.0125597E1,1.2718518E0,5.796348E0,2.1319408E0,1.982407E3,1.6305372E3,4.3657513E0,1.3001512E0,1.5409547E1,5.1560206E0,1.0349496E2,8.029012E0,4.972342E0,2.9523184E0,8.581807E0,1.730175E0,9.42094E2,6.302494E1,5.5361927E1,8.350409E0,1.1314604E1,2.641195E1,7.9663377E0,2.4122934E0,7.2659515E1,2.7903533E0,6.0749235E0,8.561791E0,4.5876007E0,1.4125426E0,1.6557829E1,1.3627591E0,2.783779E0,1.1992493E0],"tree_param":{"num_deleted":"0","num_feature":"346","num_nodes":"101","size_leaf_vector":"1"}},{"base_weights":[7.857383E-2,-9.964079E-2,6.732667E-1,1.22015335E-1,-3.421613E-1,7.9287845E-1,1.8388547E-1,-1.2973919E-2,4.3927076E-1,-4.562406E-1,-4.9112517E-2,8.943301E-1,5.8941025E-1,-4.6530448E-2,4.504836E-1,2.756259E-1,-1.9245847E-1,5.435884E-1,-4.6784535E-2,-4.8461697E-1,-2.0411174E-1,8.678865E-2,-3.357674E-1,9.1057533E-1,3.3890545E-1,4.254308E-1,8.5937464E-1,4.870347E-1,-1.3999857E-1,5.8530945E-1,5.5817463E-2,1.9457288E-1,8.4087E-1,-2.4243188E-1,4.8919758E-1,6.5752006E-1,1.7712829E-1,3.2073578E-1,-1.4445731E-1,-5.143934E-1,-3.240073E-1,-3.0631226E-1,2.7690652E-1,-6.3257604E-3,5.349582E-1,-1.134633E-1,-4.2721668E-1,9.2750514E-1,4.8839644E-1,4.4236538E-1,-4.4315496E-1,7.738851E-2,5.965608E-1,8.9187086E-1,1.7835805E-1,-2.7235398E-1,6.6874456E-1,-2.3716909E-1,3.964284E-1,7.5505626E-1,3.678024E-1,3.371922E-1,-2.3696159E-1,4.0636122E-2,2.8811464E-1,2.6501918E-1,-1.2378177E-1,-8.9834176E-2,5.674324E-2,1.9596712E-1,-7.365471E-2,2.0989084E-1,-2.7101696E-2,2.4136644E-2,1.7781256E-1,1.2314301E-1,-1.4726153E-1,-6.286347E-2,1.5451372E-1,-1.58375E-1,-8.099408E-2,-6.462708E-2,-1.5946983E-1,-1.0996472E-1,7.549153E-2,2.2618797E-1,-2.8219303E-2,2.9261958E-2,-1.0923927E-1,1.9167762E-1,-5.4394E-2,9.404113E-3,-1.16785E-1,-1.3402407E-1,6.9473095E-2,2.8566828E-1,2.3942974E-1,2.0869805E-1,4.0489174E-2,1.7109694E-1,-6.3864134E-2,1.5176965E-1,-1.8739972E-1,-2.058863E-2,1.77536E-1,2.1453755E-1,1.02129005E-1,2.790226E-1,1.5970966E-1,1.6041148E-1,-1.1854435E-1,-1.5862381E-1,2.7719474E-1,2.1815217E-1,-1.1094768E-1,-1.0134938E-1,5.2016336E-2,2.1965562E-1,1.0327676E-2,2.421975E-2,2.5018653E-1,5.8343023E-2,2.5603744E-1,4.7598664E-2,3E-1,-1.12999804E-1,1.7135923E-1],"categories":[],"categories_nodes":[],"categories_segments":[],"categories_sizes":[],"default_left":[0,0,0,0,0,0,0,0,0,0,0,0,0,0,0,0,0,0,0,0,0,0,0,0,0,0,0,0,0,0,0,0,0,0,0,0,0,0,0,0,0,0,0,0,0,0,0,0,0,0,0,0,0,0,0,0,0,0,0,0,0,0,0,0,0,0,0,0,0,0,0,0,0,0,0,0,0,0,0,0,0,0,0,0,0,0,0,0,0,0,0,0,0,0,0,0,0,0,0,0,0,0,0,0,0,0,0,0,0,0,0,0,0,0,0,0,0,0,0,0,0,0,0,0,0,0,0],"id":11,"left_children":[1,3,5,7,9,11,13,15,17,19,21,23,25,27,29,31,33,35,37,39,41,43,45,47,49,51,53,55,57,59,61,63,65,67,69,71,73,75,77,79,81,83,85,87,89,91,93,95,97,99,101,103,105,107,109,111,113,115,117,119,121,123,125,-1,-1,-1,-1,-1,-1,-1,-1,-1,-1,-1,-1,-1,-1,-1,-1,-1,-1,-1,-1,-1,-1,-1,-1,-1,-1,-1,-1,-1,-1,-1,-1,-1,-1,-1,-1,-1,-1,-1,-1,-1,-1,-1,-1,-1,-1,-1,-1,-1,-1,-1,-1,-1,-1,-1,-1,-1,-1,-1,-1,-1,-1,-1,-1],"loss_changes":[2.529772E3,9.873387E2,3.22021E2,4.109912E2,2.9318567E2,9.076245E1,6.6504395E1,3.4882346E2,1.4526727E2,4.506665E1,9.581147E1,2.6301514E1,6.490222E1,2.90657E1,2.6671028E1,1.1813881E2,1.4155273E2,9.835101E1,1.824853E1,2.6966553E1,3.1564741E1,6.9641E1,1.603138E1,2.0022217E1,7.1057844E0,5.470221E1,1.2148834E1,1.2172785E1,2.5924534E1,1.3529037E1,1.0698037E1,1.021736E2,1.761113E1,9.5259155E1,3.4376884E1,5.6717407E1,2.2478703E1,7.978463E0,1.7333694E1,1.5671631E1,1.9944939E1,1.7858536E1,2.0022408E1,5.1419853E1,2.1493912E1,9.274727E0,7.3093796E0,8.047852E0,8.151615E0,6.4869413E0,2.120838E0,2.2884777E1,1.8465271E1,6.7921753E0,5.6432424E0,5.852887E0,4.5414524E0,1.7423456E1,9.257613E0,1.1056763E1,1.379608E1,8.78146E0,7.4130564E0,0E0,0E0,0E0,0E0,0E0,0E0,0E0,0E0,0E0,0E0,0E0,0E0,0E0,0E0,0E0,0E0,0E0,0E0,0E0,0E0,0E0,0E0,0E0,0E0,0E0,0E0,0E0,0E0,0E0,0E0,0E0,0E0,0E0,0E0,0E0,0E0,0E0,0E0,0E0,0E0,0E0,0E0,0E0,0E0,0E0,0E0,0E0,0E0,0E0,0E0,0E0,0E0,0E0,0E0,0E0,0E0,0E0,0E0,0E0,0E0,0E0,0E0,0E0,0E0],"parents":[2147483647,0,0,1,1,2,2,3,3,4,4,5,5,6,6,7,7,8,8,9,9,10,10,11,11,12,12,13,13,14,14,15,15,16,16,17,17,18,18,19,19,20,20,21,21,22,22,23,23,24,24,25,25,26,26,27,27,28,28,29,29,30,30,31,31,32,32,33,33,34,34,35,35,36,36,37,37,38,38,39,39,40,40,41,41,42,42,43,43,44,44,45,45,46,46,47,47,48,48,49,49,50,50,51,51,52,52,53,53,54,54,55,55,56,56,57,57,58,58,59,59,60,60,61,61,62,62],"right_children":[2,4,6,8,10,12,14,16,18,20,22,24,26,28,30,32,34,36,38,40,42,44,46,48,50,52,54,56,58,60,62,64,66,68,70,72,74,76,78,80,82,84,86,88,90,92,94,96,98,100,102,104,106,108,110,112,114,116,118,120,122,124,126,-1,-1,-1,-1,-1,-1,-1,-1,-1,-1,-1,-1,-1,-1,-1,-1,-1,-1,-1,-1,-1,-1,-1,-1,-1,-1,-1,-1,-1,-1,-1,-1,-1,-1,-1,-1,-1,-1,-1,-1,-1,-1,-1,-1,-1,-1,-1,-1,-1,-1,-1,-1,-1,-1,-1,-1,-1,-1,-1,-1,-1,-1,-1,-1],"split_conditions":[2E0,9E0,2E0,1E0,8.595852E-2,2.3E1,1.0110649E-1,7E0,2.382763E-2,1.20634235E-1,2E0,1.1560904E-1,4E0,2E1,2.6537394E-2,2.5290486E-1,1.4876877E-1,1E0,6E0,1.285687E-1,2E0,3.442496E-2,1.3305088E0,1.0868051E-1,7.376921E0,6.0549423E-2,8.6061716E-2,1E0,5E0,4.5E1,3E0,2.2089015E-1,2.6537394E-2,1.7065828E-1,5.9901416E-2,9.004919E-2,9.966276E-2,3.1136908E-2,1.576907E-1,1.32761E-1,3.0856492E-2,7.784168E-2,3.7E1,8.603362E-2,4.3092947E-2,5E1,1.43351E-1,1E0,7E0,2.2734815E-1,4E0,9.582092E-2,2.382763E-2,4.0883444E-2,4E1,1.2E1,1.388694E-1,8.4709704E-2,1.6E1,1E0,6E0,5.8333486E-2,6.2002268E-2,4.0636122E-2,2.8811464E-1,2.6501918E-1,-1.2378177E-1,-8.9834176E-2,5.674324E-2,1.9596712E-1,-7.365471E-2,2.0989084E-1,-2.7101696E-2,2.4136644E-2,1.7781256E-1,1.2314301E-1,-1.4726153E-1,-6.286347E-2,1.5451372E-1,-1.58375E-1,-8.099408E-2,-6.462708E-2,-1.5946983E-1,-1.0996472E-1,7.549153E-2,2.2618797E-1,-2.8219303E-2,2.9261958E-2,-1.0923927E-1,1.9167762E-1,-5.4394E-2,9.404113E-3,-1.16785E-1,-1.3402407E-1,6.9473095E-2,2.8566828E-1,2.3942974E-1,2.0869805E-1,4.0489174E-2,1.7109694E-1,-6.3864134E-2,1.5176965E-1,-1.8739972E-1,-2.058863E-2,1.77536E-1,2.1453755E-1,1.02129005E-1,2.790226E-1,1.5970966E-1,1.6041148E-1,-1.1854435E-1,-1.5862381E-1,2.7719474E-1,2.1815217E-1,-1.1094768E-1,-1.0134938E-1,5.2016336E-2,2.1965562E-1,1.0327676E-2,2.421975E-2,2.5018653E-1,5.8343023E-2,2.5603744E-1,4.7598664E-2,3E-1,-1.12999804E-1,1.7135923E-1],"split_indices":[22,12,35,52,176,10,176,10,194,290,35,231,22,10,107,306,223,35,38,255,81,99,8,107,1,176,107,79,22,10,54,99,107,290,194,107,290,231,248,274,107,274,10,194,231,75,221,35,86,168,12,223,194,243,10,33,133,223,67,79,22,106,162,0,0,0,0,0,0,0,0,0,0,0,0,0,0,0,0,0,0,0,0,0,0,0,0,0,0,0,0,0,0,0,0,0,0,0,0,0,0,0,0,0,0,0,0,0,0,0,0,0,0,0,0,0,0,0,0,0,0,0,0,0,0,0,0],"split_type":[0,0,0,0,0,0,0,0,0,0,0,0,0,0,0,0,0,0,0,0,0,0,0,0,0,0,0,0,0,0,0,0,0,0,0,0,0,0,0,0,0,0,0,0,0,0,0,0,0,0,0,0,0,0,0,0,0,0,0,0,0,0,0,0,0,0,0,0,0,0,0,0,0,0,0,0,0,0,0,0,0,0,0,0,0,0,0,0,0,0,0,0,0,0,0,0,0,0,0,0,0,0,0,0,0,0,0,0,0,0,0,0,0,0,0,0,0,0,0,0,0,0,0,0,0,0,0],"sum_hessian":[2.3867977E4,1.8365213E4,5.502763E3,9.595617E3,8.769596E3,4.4214727E3,1.0812905E3,6.732121E3,2.863496E3,6.3119106E3,2.4576848E3,2.9481133E3,1.4733595E3,5.804466E2,5.0084393E2,2.581192E3,4.150929E3,2.357425E3,5.0607117E2,5.6725586E3,6.3935223E2,1.6677247E3,7.8996E2,2.8637148E3,8.4398415E1,9.182065E2,5.55153E2,8.589606E1,4.9455054E2,3.729528E2,1.2789116E2,2.2586567E3,3.2253522E2,3.8680034E3,2.829258E2,1.7977228E3,5.597023E2,1.0577611E2,4.0029504E2,4.7835117E3,8.8904706E2,5.276147E2,1.11737526E2,1.3816505E3,2.860742E2,2.3090173E2,5.590583E2,2.752154E3,1.11560875E2,7.4921326E1,9.477093E0,3.0313864E2,6.150678E2,5.295736E2,2.5579409E1,1.6488724E1,6.940733E1,4.1917703E2,7.537352E1,2.080865E2,1.6486627E2,6.513837E1,6.2752796E1,2.0978809E3,1.6077592E2,3.1223706E2,1.0298154E1,3.4169036E3,4.510999E2,2.3138058E2,5.1545227E1,1.7019415E3,9.578115E1,4.5504315E2,1.0465912E2,9.568976E1,1.0086346E1,3.6495886E2,3.53362E1,4.531619E3,2.5189226E2,5.8502893E2,3.040181E2,4.7651306E2,5.1101654E1,4.8428307E1,6.330922E1,1.0713738E3,3.1027682E2,2.499079E2,3.61663E1,1.5199043E2,7.891129E1,5.4327454E2,1.578373E1,2.3053657E3,4.4678824E2,6.971156E1,4.1849304E1,6.2789303E1,1.2132021E1,1.2346096E0,8.242483E0,2.3678993E2,6.634871E1,4.1921768E2,1.9585014E2,4.7726752E2,5.23061E1,1.5818356E1,9.761052E0,1.4038172E1,2.4505525E0,6.599436E1,3.4129713E0,3.3678076E2,8.239627E1,3.85738E1,3.6799725E1,2.2008644E1,1.8607787E2,1.2253515E2,4.2331127E1,5.3866173E1,1.1272194E1,5.395897E1,8.79383E0],"tree_param":{"num_deleted":"0","num_feature":"346","num_nodes":"127","size_leaf_vector":"1"}},{"base_weights":[-1.9942395E-1,-3.078251E-1,2.893334E-1,-1.6653036E-1,-4.2264944E-1,-2.6701687E-2,5.060515E-1,-5.570806E-2,-3.3567405E-1,-3.6483982E-1,-4.98184E-1,1.9103464E-1,-1.9175883E-1,5.8950514E-1,1.6085806E-1,-1.2842375E-1,2.2196203E-1,-2.65553E-1,-5.205129E-1,-4.113533E-1,-1.8144639E-1,-5.109734E-1,-3.225501E-1,2.5366664E-1,-3.6560434E-1,-2.337962E-1,2.2652051E-1,7.1316373E-1,4.685002E-1,-2.7443998E-2,4.1100723E-1,-1.5957703E-1,4.103812E-1,1.5752819E-1,9.2935604E-1,-3.2952607E-1,-4.1770197E-2,-5.388602E-1,-3.1709915E-1,-4.2815974E-1,1.6664516E-2,-2.6361722E-1,1.18831806E-1,-5.158233E-1,-2.0871955E-1,-3.8553688E-1,5.1166985E-2,1.6428044E-1,6.0385656E-1,-4.0587536E-1,1.9447774E-1,-2.8539407E-1,3.437803E-2,1.4099328E-1,1E0,7.338367E-1,2.63142E-1,3.4518832E-1,6.465086E-1,1.0917722E-1,-3.4331036E-1,1.602246E-1,6.105998E-1,-5.7504587E-2,9.4904974E-2,6.733042E-2,2.3846029E-1,2.764769E-2,2.3573339E-1,-1.05448715E-1,3E-1,-1.12192325E-1,-3.8663566E-2,-6.854447E-2,6.658631E-2,-1.6245939E-1,1.4475782E-1,-1.2923004E-1,1.3571493E-1,-1.3363068E-1,-3.9182812E-2,7.2294384E-2,-9.027839E-2,-9.9943474E-2,1.6263653E-2,1.8013367E-2,3E-1,-1.5655963E-1,-1.07408054E-1,4.0885225E-2,-1.22189514E-1,-1.2940139E-1,-1.1318206E-3,1.3542642E-1,-1.08999975E-1,3.1475417E-2,2.1665679E-1,1.9578707E-1,-1.6980621E-1,-1.4269666E-1,9.927529E-2,-1.0407716E-1,-2.489273E-2,9.745027E-2,-8.873233E-2,2.3408419E-1,5.7873474E-3,3E-1,9.6748985E-2,2.2788809E-1,1.2959787E-1,5.6374692E-3,2.5705004E-1,1.2144442E-1,2.2786566E-4,2.0242143E-1,-2.1539355E-2,6.382967E-2,-1.09944336E-1,-1.3002187E-1,8.987735E-2,-4.878037E-2,1.467542E-1,1.3683428E-1,2.7985746E-1],"categories":[],"categories_nodes":[],"categories_segments":[],"categories_sizes":[],"default_left":[0,0,0,0,0,0,0,0,0,0,0,0,0,0,0,0,0,0,0,0,0,0,0,0,0,0,0,0,0,0,0,0,0,0,0,0,0,0,0,0,0,0,0,0,0,0,0,0,0,0,0,0,0,0,0,0,0,0,0,0,0,0,0,0,0,0,0,0,0,0,0,0,0,0,0,0,0,0,0,0,0,0,0,0,0,0,0,0,0,0,0,0,0,0,0,0,0,0,0,0,0,0,0,0,0,0,0,0,0,0,0,0,0,0,0,0,0,0,0,0,0,0,0,0,0],"id":12,"left_children":[1,3,5,7,9,11,13,15,17,19,21,23,25,27,29,31,33,35,37,39,41,43,45,47,49,51,53,55,57,59,61,63,65,67,69,71,73,75,77,79,81,83,85,87,89,91,93,95,97,99,-1,101,103,105,107,109,111,113,115,117,119,121,123,-1,-1,-1,-1,-1,-1,-1,-1,-1,-1,-1,-1,-1,-1,-1,-1,-1,-1,-1,-1,-1,-1,-1,-1,-1,-1,-1,-1,-1,-1,-1,-1,-1,-1,-1,-1,-1,-1,-1,-1,-1,-1,-1,-1,-1,-1,-1,-1,-1,-1,-1,-1,-1,-1,-1,-1,-1,-1,-1,-1,-1,-1],"loss_changes":[1.0082061E3,2.5260376E2,2.3661813E2,1.3089307E2,3.733252E1,5.0574924E1,5.894171E1,8.524563E1,3.5690186E1,4.1470398E1,8.195435E0,2.1249718E1,1.4126217E1,2.435492E1,1.8869757E1,5.6218056E1,3.9793625E1,2.870552E1,2.6626282E0,2.7947998E1,2.438773E1,4.975342E0,6.030138E0,1.6993889E1,2.785781E0,1.0080166E1,4.965531E0,7.3809204E0,1.8146133E1,9.935092E0,8.511827E0,4.839251E1,1.2914276E1,3.2959232E1,8.240513E0,1.38641815E1,2.2067696E1,2.1573029E0,5.9014297E0,1.9153992E1,1.05960045E1,1.715163E1,1.2619642E1,3.0663452E0,3.9222305E0,3.8210793E0,6.420393E0,1.4377293E1,6.683117E0,3.2442875E0,0E0,7.5742035E0,1.1442805E1,5.2567215E0,7.850933E-2,5.7268066E0,5.397212E0,1.0196835E1,6.9696655E0,8.004169E0,4.154978E0,8.318582E0,4.3250504E0,0E0,0E0,0E0,0E0,0E0,0E0,0E0,0E0,0E0,0E0,0E0,0E0,0E0,0E0,0E0,0E0,0E0,0E0,0E0,0E0,0E0,0E0,0E0,0E0,0E0,0E0,0E0,0E0,0E0,0E0,0E0,0E0,0E0,0E0,0E0,0E0,0E0,0E0,0E0,0E0,0E0,0E0,0E0,0E0,0E0,0E0,0E0,0E0,0E0,0E0,0E0,0E0,0E0,0E0,0E0,0E0,0E0,0E0,0E0,0E0,0E0,0E0],"parents":[2147483647,0,0,1,1,2,2,3,3,4,4,5,5,6,6,7,7,8,8,9,9,10,10,11,11,12,12,13,13,14,14,15,15,16,16,17,17,18,18,19,19,20,20,21,21,22,22,23,23,24,24,25,25,26,26,27,27,28,28,29,29,30,30,31,31,32,32,33,33,34,34,35,35,36,36,37,37,38,38,39,39,40,40,41,41,42,42,43,43,44,44,45,45,46,46,47,47,48,48,49,49,51,51,52,52,53,53,54,54,55,55,56,56,57,57,58,58,59,59,60,60,61,61,62,62],"right_children":[2,4,6,8,10,12,14,16,18,20,22,24,26,28,30,32,34,36,38,40,42,44,46,48,50,52,54,56,58,60,62,64,66,68,70,72,74,76,78,80,82,84,86,88,90,92,94,96,98,100,-1,102,104,106,108,110,112,114,116,118,120,122,124,-1,-1,-1,-1,-1,-1,-1,-1,-1,-1,-1,-1,-1,-1,-1,-1,-1,-1,-1,-1,-1,-1,-1,-1,-1,-1,-1,-1,-1,-1,-1,-1,-1,-1,-1,-1,-1,-1,-1,-1,-1,-1,-1,-1,-1,-1,-1,-1,-1,-1,-1,-1,-1,-1,-1,-1,-1,-1,-1,-1,-1,-1],"split_conditions":[9.163989E-2,1E0,4.413572E-2,1E0,2E0,1E0,4.9112003E-2,2E0,5.4516517E-2,2E0,4.768121E-2,3.1136908E-2,7.695521E-2,1E0,2.0402038E-1,1.4539267E-1,1.6799136E-1,1.0389791E-1,1.9182882E-1,5.1257763E-2,1.350457E-1,1.7465039E-1,1.17727086E-1,2E0,1.2259911E-1,3E0,1.084872E-1,2.7640456E-1,2.4279824E-1,4E0,1.7996466E-1,1.9123027E-1,1.02416344E-1,1.93828E-1,6.885595E1,4.5375157E-2,1E0,5.866548E-1,2.6537394E-2,1.381623E-1,5.263353E-2,6.540617E-2,2.1930009E-1,2.080997E-1,3E0,6.0791545E-2,6.841883E-2,1.04438536E-1,2.7192011E-2,1.2906675E-1,1.9447774E-1,2.4859776E-1,3E0,9E-2,6.9935656E0,2E0,7.094364E0,5.3001113E-2,8.452926E-2,8.59339E-2,1.14278466E-1,8.999298E-2,1.2E1,-5.7504587E-2,9.4904974E-2,6.733042E-2,2.3846029E-1,2.764769E-2,2.3573339E-1,-1.05448715E-1,3E-1,-1.12192325E-1,-3.8663566E-2,-6.854447E-2,6.658631E-2,-1.6245939E-1,1.4475782E-1,-1.2923004E-1,1.3571493E-1,